{"learner":{"attributes":{"scikit_learn":"{\"_estimator_type\": \"regressor\"}"},"feature_names":["duration","departure_month","departure_hour","arrival_month","arrival_hour","days","weekend_score","departure_daytime_score","arrival_daytime_score","quality_per_duration"],"feature_types":["int","float","int","float","int","int","float","float","float","float"],"gradient_booster":{"model":{"gbtree_model_param":{"num_parallel_tree":"1","num_trees":"100"},"iteration_indptr":[0,1,2,3,4,5,6,7,8,9,10,11,12,13,14,15,16,17,18,19,20,21,22,23,24,25,26,27,28,29,30,31,32,33,34,35,36,37,38,39,40,41,42,43,44,45,46,47,48,49,50,51,52,53,54,55,56,57,58,59,60,61,62,63,64,65,66,67,68,69,70,71,72,73,74,75,76,77,78,79,80,81,82,83,84,85,86,87,88,89,90,91,92,93,94,95,96,97,98,99,100],"tree_info":[0,0,0,0,0,0,0,0,0,0,0,0,0,0,0,0,0,0,0,0,0,0,0,0,0,0,0,0,0,0,0,0,0,0,0,0,0,0,0,0,0,0,0,0,0,0,0,0,0,0,0,0,0,0,0,0,0,0,0,0,0,0,0,0,0,0,0,0,0,0,0,0,0,0,0,0,0,0,0,0,0,0,0,0,0,0,0,0,0,0,0,0,0,0,0,0,0,0,0,0],"trees":[{"base_weights":[-0E0,-6.701366E-3,1.0275765E-2,-1.3160011E-2,-2.5049073E-3,7.682171E-3,1.9544575E-2,-3.3110415E-3,-9.4238523E-4,-8.0203946E-4,5.3274323E-4,3.367592E-3,7.470881E-4,3.4175261E-3,5.5582547E-3],"categories":[],"categories_nodes":[],"categories_segments":[],"categories_sizes":[],"default_left":[0,0,0,0,0,0,0,0,0,0,0,0,0,0,0],"id":0,"left_children":[1,3,5,7,9,11,13,-1,-1,-1,-1,-1,-1,-1,-1],"loss_changes":[4.9631363E1,1.1815687E1,6.82481E0,4.9156685E0,2.058485E0,8.023932E0,1.2345924E0,0E0,0E0,0E0,0E0,0E0,0E0,0E0,0E0],"parents":[2147483647,0,0,1,1,2,2,3,3,4,4,5,5,6,6],"right_children":[2,4,6,8,10,12,14,-1,-1,-1,-1,-1,-1,-1,-1],"split_conditions":[8.625284E-3,6.3443184E-3,1.1522222E-2,5.79E4,1.386E5,1.56E4,1.4416896E-2,-3.3110415E-3,-9.4238523E-4,-8.0203946E-4,5.3274323E-4,3.367592E-3,7.470881E-4,3.4175261E-3,5.5582547E-3],"split_indices":[9,9,9,0,0,0,9,0,0,0,0,0,0,0,0],"split_type":[0,0,0,0,0,0,0,0,0,0,0,0,0,0,0],"sum_hessian":[7.2073E5,4.36238E5,2.84492E5,1.71759E5,2.64479E5,2.2234E5,6.2152E4,1.22474E5,4.9285E4,2.04902E5,5.9577E4,6.693E4,1.5541E5,4.7944E4,1.4208E4],"tree_param":{"num_deleted":"0","num_feature":"10","num_nodes":"15","size_leaf_vector":"1"}},{"base_weights":[-0E0,-7.256514E-3,6.2098014E-3,-1.040571E-2,-2.8240844E-3,2.3322685E-3,1.1859538E-2,3.6787425E-4,-2.4019629E-3,-9.3483797E-4,-7.699945E-5,1.7940849E-3,3.2024014E-5,2.0542245E-3,4.0287855E-3],"categories":[],"categories_nodes":[],"categories_segments":[],"categories_sizes":[],"default_left":[0,0,0,0,0,0,0,0,0,0,0,0,0,0,0],"id":1,"left_children":[1,3,5,7,9,11,13,-1,-1,-1,-1,-1,-1,-1,-1],"loss_changes":[3.247738E1,4.63225E0,8.501437E0,3.8202972E0,6.207284E-1,3.3173194E0,2.063177E0,0E0,0E0,0E0,0E0,0E0,0E0,0E0,0E0],"parents":[2147483647,0,0,1,1,2,2,3,3,4,4,5,5,6,6],"right_children":[2,4,6,8,10,12,14,-1,-1,-1,-1,-1,-1,-1,-1],"split_conditions":[7.805545E-3,3.51E4,9.766082E-3,1.17E4,1.551E5,1.56E4,1.32158045E-2,3.6787425E-4,-2.4019629E-3,-9.3483797E-4,-7.699945E-5,1.7940849E-3,3.2024014E-5,2.0542245E-3,4.0287855E-3],"split_indices":[9,0,9,0,0,0,9,0,0,0,0,0,0,0,0],"split_type":[0,0,0,0,0,0,0,0,0,0,0,0,0,0,0],"sum_hessian":[7.2073E5,3.32336E5,3.88394E5,1.94223E5,1.38113E5,2.30377E5,1.58017E5,2.246E4,1.71763E5,7.842E4,5.9693E4,5.6738E4,1.73639E5,1.32654E5,2.5363E4],"tree_param":{"num_deleted":"0","num_feature":"10","num_nodes":"15","size_leaf_vector":"1"}},{"base_weights":[-0E0,-4.0585557E-3,7.25294E-3,-8.001452E-3,-5.699523E-4,1.2812561E-2,4.894307E-3,-2.0896762E-3,-6.736023E-4,2.5294477E-3,-1.9815248E-4,6.084097E-4,2.81628E-3,4.5862986E-4,2.3911826E-3],"categories":[],"categories_nodes":[],"categories_segments":[],"categories_sizes":[],"default_left":[0,0,0,0,0,0,0,0,0,0,0,0,0,0,0],"id":2,"left_children":[1,3,5,7,9,11,13,-1,-1,-1,-1,-1,-1,-1,-1],"loss_changes":[2.1217373E1,6.3519993E0,3.3823795E0,2.4515972E0,1.3582859E0,9.454975E-1,3.3296804E0,0E0,0E0,0E0,0E0,0E0,0E0,0E0,0E0],"parents":[2147483647,0,0,1,1,2,2,3,3,4,4,5,5,6,6],"right_children":[2,4,6,8,10,12,14,-1,-1,-1,-1,-1,-1,-1,-1],"split_conditions":[8.888889E-3,6.6959066E-3,1.89E4,3.51E4,9.6E3,5E-1,1.1611111E-2,-2.0896762E-3,-6.736023E-4,2.5294477E-3,-1.9815248E-4,6.084097E-4,2.81628E-3,4.5862986E-4,2.3911826E-3],"split_indices":[9,9,0,0,0,6,9,0,0,0,0,0,0,0,0],"split_type":[0,0,0,0,0,0,0,0,0,0,0,0,0,0,0],"sum_hessian":[7.2073E5,4.62097E5,2.58633E5,2.16854E5,2.45243E5,7.697E4,1.81663E5,1.41836E5,7.5018E4,7.526E3,2.37717E5,8.894E3,6.8076E4,1.32817E5,4.8846E4],"tree_param":{"num_deleted":"0","num_feature":"10","num_nodes":"15","size_leaf_vector":"1"}},{"base_weights":[8.930924E-8,-5.2370434E-3,3.7048396E-3,-9.633818E-3,-3.7369605E-3,1.4587917E-3,8.28568E-3,-2.3726886E-3,-8.24111E-4,-9.531015E-4,1.4579871E-4,1.0572447E-3,1.9741736E-5,2.3185413E-3,1.062557E-3],"categories":[],"categories_nodes":[],"categories_segments":[],"categories_sizes":[],"default_left":[0,0,0,0,0,0,0,0,0,0,0,0,0,0,0],"id":3,"left_children":[1,3,5,7,9,11,13,-1,-1,-1,-1,-1,-1,-1,-1],"loss_changes":[1.3983225E1,1.9622755E0,4.338818E0,9.2428493E-1,1.0249996E0,1.4723916E0,1.3560791E0,0E0,0E0,0E0,0E0,0E0,0E0,0E0,0E0],"parents":[2147483647,0,0,1,1,2,2,3,3,4,4,5,5,6,6],"right_children":[2,4,6,8,10,12,14,-1,-1,-1,-1,-1,-1,-1,-1],"split_conditions":[7.51634E-3,5.631313E-3,9.96997E-3,6.09E4,1.596E5,1.62E4,4.74E4,-2.3726886E-3,-8.24111E-4,-9.531015E-4,1.4579871E-4,1.0572447E-3,1.9741736E-5,2.3185413E-3,1.062557E-3],"split_indices":[9,9,9,0,0,0,0,0,0,0,0,0,0,0,0],"split_type":[0,0,0,0,0,0,0,0,0,0,0,0,0,0,0],"sum_hessian":[7.2073E5,2.98552E5,4.22178E5,7.5856E4,2.22696E5,2.83359E5,1.38819E5,5.3944E4,2.1912E4,1.81099E5,4.1597E4,7.4192E4,2.09167E5,6.563E4,7.3189E4],"tree_param":{"num_deleted":"0","num_feature":"10","num_nodes":"15","size_leaf_vector":"1"}},{"base_weights":[2.134365E-7,-2.6585658E-3,4.7525205E-3,-6.34995E-3,-1.039019E-3,7.2234236E-3,2.1852946E-3,-1.5781937E-3,-4.6729526E-4,1.3266029E-3,-2.9959762E-4,1.108061E-3,2.018516E-3,-2.597558E-4,1.6508456E-3],"categories":[],"categories_nodes":[],"categories_segments":[],"categories_sizes":[],"default_left":[0,0,0,0,0,0,0,0,0,0,0,0,0,0,0],"id":4,"left_children":[1,3,5,7,9,11,13,-1,-1,-1,-1,-1,-1,-1,-1],"loss_changes":[9.107839E0,2.7588892E0,1.6358519E0,8.6574936E-1,1.128803E0,6.2785196E-1,2.687903E0,0E0,0E0,0E0,0E0,0E0,0E0,0E0,0E0],"parents":[2147483647,0,0,1,1,2,2,3,3,4,4,5,5,6,6],"right_children":[2,4,6,8,10,12,14,-1,-1,-1,-1,-1,-1,-1,-1],"split_conditions":[8.888889E-3,6.0723154E-3,5.34E4,5.79E4,1.02E4,1.0492486E-2,8.64E4,-1.5781937E-3,-4.6729526E-4,1.3266029E-3,-2.9959762E-4,1.108061E-3,2.018516E-3,-2.597558E-4,1.6508456E-3],"split_indices":[9,9,0,0,0,9,0,0,0,0,0,0,0,0,0],"split_type":[0,0,0,0,0,0,0,0,0,0,0,0,0,0,0],"sum_hessian":[7.2073E5,4.62097E5,2.58633E5,1.40816E5,3.21281E5,1.31685E5,1.26948E5,1.01655E5,3.9161E4,1.807E4,3.03211E5,8.3116E4,4.8569E4,8.0599E4,4.6349E4],"tree_param":{"num_deleted":"0","num_feature":"10","num_nodes":"15","size_leaf_vector":"1"}},{"base_weights":[5.702172E-8,-3.9610015E-3,2.223238E-3,-5.49155E-3,-1.3712677E-3,1.1093136E-3,6.9935434E-3,2.917917E-4,-1.4171253E-3,-5.7862013E-5,-7.2639604E-4,8.6155237E-4,-6.6203584E-6,1.1933673E-3,3.274229E-3],"categories":[],"categories_nodes":[],"categories_segments":[],"categories_sizes":[],"default_left":[0,0,0,0,0,0,0,0,0,0,0,0,0,0,0],"id":5,"left_children":[1,3,5,7,9,11,13,-1,-1,-1,-1,-1,-1,-1,-1],"loss_changes":[6.346076E0,1.0232081E0,2.4493845E0,1.8052897E0,2.3369355E-1,1.3701977E0,8.290739E-1,0E0,0E0,0E0,0E0,0E0,0E0,0E0,0E0],"parents":[2147483647,0,0,1,1,2,2,3,3,4,4,5,5,6,6],"right_children":[2,4,6,8,10,12,14,-1,-1,-1,-1,-1,-1,-1,-1],"split_conditions":[7.1059433E-3,3.51E4,1.0830469E-2,1.32E4,2.1E1,1.53E4,1.5661135E-2,2.917917E-4,-1.4171253E-3,-5.7862013E-5,-7.2639604E-4,8.6155237E-4,-6.6203584E-6,1.1933673E-3,3.274229E-3],"split_indices":[9,0,9,0,2,0,9,0,0,0,0,0,0,0,0],"split_type":[0,0,0,0,0,0,0,0,0,0,0,0,0,0,0],"sum_hessian":[7.2073E5,2.59014E5,4.61716E5,1.62674E5,9.634E4,3.744E5,8.7316E4,3.029E4,1.32384E5,6.531E4,3.103E4,9.8645E4,2.75755E5,7.8755E4,8.561E3],"tree_param":{"num_deleted":"0","num_feature":"10","num_nodes":"15","size_leaf_vector":"1"}},{"base_weights":[-0E0,-2.2701342E-3,2.5754964E-3,-3.1476282E-3,1.0134222E-3,1.9335351E-3,8.815743E-3,-6.216162E-5,-8.4774673E-4,-1.6493273E-4,6.8135717E-4,8.9983636E-4,-1.9855592E-4,1.5001436E-3,4.392385E-3],"categories":[],"categories_nodes":[],"categories_segments":[],"categories_sizes":[],"default_left":[0,0,0,0,0,0,0,0,0,0,0,0,0,0,0],"id":6,"left_children":[1,3,5,7,9,11,13,-1,-1,-1,-1,-1,-1,-1,-1],"loss_changes":[4.214104E0,1.1045842E0,1.3475773E0,9.335518E-1,3.560968E-1,2.3016448E0,5.278106E-1,0E0,0E0,0E0,0E0,0E0,0E0,0E0,0E0],"parents":[2147483647,0,0,1,1,2,2,3,3,4,4,5,5,6,6],"right_children":[2,4,6,8,10,12,14,-1,-1,-1,-1,-1,-1,-1,-1],"split_conditions":[8.234981E-3,1.431E5,1.197E5,1.53E4,6.7676767E-3,5.07E4,1.0415198E-2,-6.216162E-5,-8.4774673E-4,-1.6493273E-4,6.8135717E-4,8.9983636E-4,-1.9855592E-4,1.5001436E-3,4.392385E-3],"split_indices":[9,0,0,0,9,0,9,0,0,0,0,0,0,0,0],"split_type":[0,0,0,0,0,0,0,0,0,0,0,0,0,0,0],"sum_hessian":[7.2073E5,3.82982E5,3.37748E5,3.02338E5,8.0644E4,3.06322E5,3.1426E4,8.4113E4,2.18225E5,4.5497E4,3.5147E4,1.63309E5,1.43013E5,2.861E4,2.816E3],"tree_param":{"num_deleted":"0","num_feature":"10","num_nodes":"15","size_leaf_vector":"1"}},{"base_weights":[-0E0,-1.176051E-3,3.7580128E-3,-2.0649477E-3,1.3379641E-3,3.0422544E-3,1.0275925E-2,1.3859909E-4,-6.726187E-4,-1.03854305E-4,8.788867E-4,1.409795E-3,3.063443E-4,1.5517131E-3,3.019892E-3],"categories":[],"categories_nodes":[],"categories_segments":[],"categories_sizes":[],"default_left":[0,0,0,0,0,0,0,0,0,0,0,0,0,0,0],"id":7,"left_children":[1,3,5,7,9,11,13,-1,-1,-1,-1,-1,-1,-1,-1],"loss_changes":[3.1864014E0,1.2269368E0,7.9500127E-1,1.453642E0,8.1500614E-1,9.333966E-1,1.9361985E-1,0E0,0E0,0E0,0E0,0E0,0E0,0E0,0E0],"parents":[2147483647,0,0,1,1,2,2,3,3,4,4,5,5,6,6],"right_children":[2,4,6,8,10,12,14,-1,-1,-1,-1,-1,-1,-1,-1],"split_conditions":[9.638889E-3,1.083E5,1.4009662E-2,1.62E4,7.5925817E-3,1.44E4,1.6507937E-2,1.3859909E-4,-6.726187E-4,-1.03854305E-4,8.788867E-4,1.409795E-3,3.063443E-4,1.5517131E-3,3.019892E-3],"split_indices":[9,0,9,0,9,0,9,0,0,0,0,0,0,0,0],"split_type":[0,0,0,0,0,0,0,0,0,0,0,0,0,0,0],"sum_hessian":[7.2073E5,5.48865E5,1.71865E5,4.0564E5,1.43225E5,1.54935E5,1.693E4,1.29702E5,2.75938E5,8.8991E4,5.4234E4,4.2323E4,1.12612E5,1.1201E4,5.729E3],"tree_param":{"num_deleted":"0","num_feature":"10","num_nodes":"15","size_leaf_vector":"1"}},{"base_weights":[3.3991859E-7,-2.3101182E-3,1.2975574E-3,-5.3890403E-3,-1.6099163E-3,5.804388E-4,4.366536E-3,-1.3271419E-3,-5.0085475E-4,-5.481413E-4,3.357301E-5,-8.4903365E-4,2.0361632E-4,7.971506E-4,3.6102526E-3],"categories":[],"categories_nodes":[],"categories_segments":[],"categories_sizes":[],"default_left":[0,0,0,0,0,0,0,0,0,0,0,0,0,0,0],"id":8,"left_children":[1,3,5,7,9,11,13,-1,-1,-1,-1,-1,-1,-1,-1],"loss_changes":[2.1596718E0,5.5486774E-1,1.0136795E0,1.6745746E-1,4.2579716E-1,7.89111E-1,4.4364405E-1,0E0,0E0,0E0,0E0,0E0,0E0,0E0,0E0],"parents":[2147483647,0,0,1,1,2,2,3,3,4,4,5,5,6,6],"right_children":[2,4,6,8,10,12,14,-1,-1,-1,-1,-1,-1,-1,-1],"split_conditions":[7.1059433E-3,5.3968253E-3,1.0830469E-2,6.27E4,3.21E4,5E-1,1.197E5,-1.3271419E-3,-5.0085475E-4,-5.481413E-4,3.357301E-5,-8.4903365E-4,2.0361632E-4,7.971506E-4,3.6102526E-3],"split_indices":[9,9,9,0,0,6,0,0,0,0,0,0,0,0,0],"split_type":[0,0,0,0,0,0,0,0,0,0,0,0,0,0,0],"sum_hessian":[7.2073E5,2.59014E5,4.61716E5,4.7852E4,2.11162E5,3.744E5,8.7316E4,3.3287E4,1.4565E4,1.29237E5,8.1925E4,3.1033E4,3.43367E5,8.4994E4,2.322E3],"tree_param":{"num_deleted":"0","num_feature":"10","num_nodes":"15","size_leaf_vector":"1"}},{"base_weights":[1.4309835E-7,-7.8762806E-4,2.518814E-3,-5.192125E-3,-4.8762775E-4,2.159328E-3,1.1465841E-2,-1.7665466E-3,5.2262115E-4,8.6441304E-4,-1.8620217E-4,2.7689006E-4,1.288534E-3,2.9251424E-3,1.5977457E-3],"categories":[],"categories_nodes":[],"categories_segments":[],"categories_sizes":[],"default_left":[0,0,0,0,0,0,0,0,0,0,0,0,0,0,0],"id":9,"left_children":[1,3,5,7,9,11,13,-1,-1,-1,-1,-1,-1,-1,-1],"loss_changes":[1.4309119E0,7.22397E-1,5.4585457E-1,9.947657E-1,1.0944079E0,5.446536E-1,6.0448527E-2,0E0,0E0,0E0,0E0,0E0,0E0,0E0,0E0],"parents":[2147483647,0,0,1,1,2,2,3,3,4,4,5,5,6,6],"right_children":[2,4,6,8,10,12,14,-1,-1,-1,-1,-1,-1,-1,-1],"split_conditions":[9.638889E-3,5E-1,1.197E5,7.74E4,1.17E4,1.32158045E-2,1.1E1,-1.7665466E-3,5.2262115E-4,8.6441304E-4,-1.8620217E-4,2.7689006E-4,1.288534E-3,2.9251424E-3,1.5977457E-3],"split_indices":[9,6,0,0,0,9,4,0,0,0,0,0,0,0,0],"split_type":[0,0,0,0,0,0,0,0,0,0,0,0,0,0,0],"sum_hessian":[7.2073E5,5.48865E5,1.71865E5,3.4889E4,5.13976E5,1.65286E5,6.579E3,2.3835E4,1.1054E4,4.3283E4,4.70693E5,1.4007E5,2.5216E4,3.363E3,3.216E3],"tree_param":{"num_deleted":"0","num_feature":"10","num_nodes":"15","size_leaf_vector":"1"}},{"base_weights":[5.6890116E-7,-1.7068385E-3,9.36736E-4,1.420102E-3,-2.11514E-3,4.4973427E-4,3.9863135E-3,-2.9878176E-3,3.748815E-4,-6.990259E-4,-5.2432322E-5,4.1940642E-4,-3.0264934E-4,6.525046E-4,1.6749677E-3],"categories":[],"categories_nodes":[],"categories_segments":[],"categories_sizes":[],"default_left":[0,0,0,0,0,0,0,0,0,0,0,0,0,0,0],"id":10,"left_children":[1,3,5,7,9,11,13,-1,-1,-1,-1,-1,-1,-1,-1],"loss_changes":[1.1516593E0,3.259886E-1,6.8939817E-1,2.1150106E-1,5.7533646E-1,1.2992927E0,1.9728792E-1,0E0,0E0,0E0,0E0,0E0,0E0,0E0,0E0],"parents":[2147483647,0,0,1,1,2,2,3,3,4,4,5,5,6,6],"right_children":[2,4,6,8,10,12,14,-1,-1,-1,-1,-1,-1,-1,-1],"split_conditions":[7.070707E-3,1.32E4,1.23E5,7E-1,3.3E4,5.07E4,9.346206E-3,-2.9878176E-3,3.748815E-4,-6.990259E-4,-5.2432322E-5,4.1940642E-4,-3.0264934E-4,6.525046E-4,1.6749677E-3],"split_indices":[9,0,0,1,0,0,9,0,0,0,0,0,0,0,0],"split_type":[0,0,0,0,0,0,0,0,0,0,0,0,0,0,0],"sum_hessian":[7.2073E5,2.55041E5,4.65689E5,2.9313E4,2.25728E5,4.01708E5,6.3981E4,7.58E2,2.8555E4,1.29219E5,9.6509E4,2.18555E5,1.83153E5,5.5028E4,8.953E3],"tree_param":{"num_deleted":"0","num_feature":"10","num_nodes":"15","size_leaf_vector":"1"}},{"base_weights":[3.1005692E-7,-4.939987E-4,2.3835811E-3,-4.029384E-3,-2.374864E-4,2.0011514E-3,1.0181196E-2,-1.5486748E-3,9.026249E-6,3.9932292E-4,-1.8275775E-4,1.0919388E-3,1.9326906E-4,-0E0,2.1416424E-3],"categories":[],"categories_nodes":[],"categories_segments":[],"categories_sizes":[],"default_left":[0,0,0,0,0,0,0,0,0,0,0,0,0,0,0],"id":11,"left_children":[1,3,5,7,9,11,13,-1,-1,-1,-1,-1,-1,-1,-1],"loss_changes":[8.500282E-1,5.3904366E-1,3.635261E-1,6.127457E-1,8.4033823E-1,4.199787E-1,2.9872775E-2,0E0,0E0,0E0,0E0,0E0,0E0,0E0,0E0],"parents":[2147483647,0,0,1,1,2,2,3,3,4,4,5,5,6,6],"right_children":[2,4,6,8,10,12,14,-1,-1,-1,-1,-1,-1,-1,-1],"split_conditions":[1.0204678E-2,5E-1,1.6507937E-2,3.51E4,1.56E4,1.44E4,1.872E4,-1.5486748E-3,9.026249E-6,3.9932292E-4,-1.8275775E-4,1.0919388E-3,1.9326906E-4,-0E0,2.1416424E-3],"split_indices":[9,6,9,0,0,0,0,0,0,0,0,0,0,0,0],"split_type":[0,0,0,0,0,0,0,0,0,0,0,0,0,0,0],"sum_hessian":[7.2073E5,5.96753E5,1.23977E5,4.0232E4,5.56521E5,1.18248E5,5.729E3,2.1109E4,1.9123E4,1.29147E5,4.27374E5,2.7116E4,9.1132E4,2.9E2,5.439E3],"tree_param":{"num_deleted":"0","num_feature":"10","num_nodes":"15","size_leaf_vector":"1"}},{"base_weights":[5.640744E-7,-9.928233E-4,9.4969344E-4,-6.297767E-3,-7.920993E-4,2.5129702E-4,3.4110183E-3,-1.9527309E-3,3.291117E-4,-5.4693373E-4,-5.6886696E-5,4.138546E-4,-5.103056E-4,6.0860696E-4,1.664442E-3],"categories":[],"categories_nodes":[],"categories_segments":[],"categories_sizes":[],"default_left":[0,0,0,0,0,0,0,0,0,0,0,0,0,0,0],"id":12,"left_children":[1,3,5,7,9,11,13,-1,-1,-1,-1,-1,-1,-1,-1],"loss_changes":[6.795303E-1,3.7114576E-1,6.3218975E-1,3.5482502E-1,3.3296683E-1,1.464615E0,1.4123839E-1,0E0,0E0,0E0,0E0,0E0,0E0,0E0,0E0],"parents":[2147483647,0,0,1,1,2,2,3,3,4,4,5,5,6,6],"right_children":[2,4,6,8,10,12,14,-1,-1,-1,-1,-1,-1,-1,-1],"split_conditions":[7.969349E-3,7E-1,8.64E4,6.66E4,5.6150793E-3,5.07E4,1.596E5,-1.9527309E-3,3.291117E-4,-5.4693373E-4,-5.6886696E-5,4.138546E-4,-5.103056E-4,6.0860696E-4,1.664442E-3],"split_indices":[9,3,0,0,9,0,0,0,0,0,0,0,0,0,0],"split_type":[0,0,0,0,0,0,0,0,0,0,0,0,0,0,0],"sum_hessian":[7.2073E5,3.51897E5,3.68833E5,1.2733E4,3.39164E5,2.87472E5,8.1361E4,8.908E3,3.825E3,7.0063E4,2.69101E5,1.7448E5,1.12992E5,7.5792E4,5.569E3],"tree_param":{"num_deleted":"0","num_feature":"10","num_nodes":"15","size_leaf_vector":"1"}},{"base_weights":[3.1187437E-7,-1.8926148E-4,3.8678108E-3,3.595618E-3,-3.673435E-4,2.9635078E-3,8.204444E-3,-1.7497955E-3,9.4829936E-4,-1.680203E-4,2.632393E-4,7.7725353E-4,2.7178926E-4,4.7172472E-4,1.8337276E-3],"categories":[],"categories_nodes":[],"categories_segments":[],"categories_sizes":[],"default_left":[0,0,0,0,0,0,0,0,0,0,0,0,0,0,0],"id":13,"left_children":[1,3,5,7,9,11,13,-1,-1,-1,-1,-1,-1,-1,-1],"loss_changes":[5.3026766E-1,4.614024E-1,1.2684953E-1,4.3307608E-1,5.2204245E-1,3.8915083E-2,2.6447982E-2,0E0,0E0,0E0,0E0,0E0,0E0,0E0,0E0],"parents":[2147483647,0,0,1,1,2,2,3,3,4,4,5,5,6,6],"right_children":[2,4,6,8,10,12,14,-1,-1,-1,-1,-1,-1,-1,-1],"split_conditions":[1.268198E-2,1.02E4,1.6507937E-2,5E-1,1.149E5,1.6E1,2.4E4,-1.7497955E-3,9.4829936E-4,-1.680203E-4,2.632393E-4,7.7725353E-4,2.7178926E-4,4.7172472E-4,1.8337276E-3],"split_indices":[9,0,9,6,0,4,0,0,0,0,0,0,0,0,0],"split_type":[0,0,0,0,0,0,0,0,0,0,0,0,0,0,0],"sum_hessian":[7.2073E5,6.86934E5,3.3796E4,3.0738E4,6.56196E5,2.8067E4,5.729E3,2.571E3,2.8167E4,5.12562E5,1.43634E5,1.7617E4,1.045E4,8.87E2,4.842E3],"tree_param":{"num_deleted":"0","num_feature":"10","num_nodes":"15","size_leaf_vector":"1"}},{"base_weights":[6.846151E-7,-6.4859976E-4,9.5010485E-4,-4.981447E-3,-4.8951333E-4,4.1431736E-4,2.9579357E-3,-1.578263E-3,2.7064726E-4,1.1361191E-3,-1.173921E-4,3.5294602E-4,-3.7384557E-4,3.363185E-4,9.218555E-4],"categories":[],"categories_nodes":[],"categories_segments":[],"categories_sizes":[],"default_left":[0,0,0,0,0,0,0,0,0,0,0,0,0,0,0],"id":14,"left_children":[1,3,5,7,9,11,13,-1,-1,-1,-1,-1,-1,-1,-1],"loss_changes":[4.4444636E-1,2.9207295E-1,3.135387E-1,2.804824E-1,2.4559814E-1,7.13869E-1,1.2649286E-1,0E0,0E0,0E0,0E0,0E0,0E0,0E0,0E0],"parents":[2147483647,0,0,1,1,2,2,3,3,4,4,5,5,6,6],"right_children":[2,4,6,8,10,12,14,-1,-1,-1,-1,-1,-1,-1,-1],"split_conditions":[8.562648E-3,7E-1,8.43E4,6.66E4,9.6E3,5.07E4,1.2E0,-1.578263E-3,2.7064726E-4,1.1361191E-3,-1.173921E-4,3.5294602E-4,-3.7384557E-4,3.363185E-4,9.218555E-4],"split_indices":[9,3,0,0,0,0,3,0,0,0,0,0,0,0,0],"split_type":[0,0,0,0,0,0,0,0,0,0,0,0,0,0,0],"sum_hessian":[7.2073E5,4.27707E5,2.93023E5,1.5031E4,4.12676E5,2.31502E5,6.1521E4,1.0353E4,4.678E3,6.332E3,4.06344E5,1.45612E5,8.589E4,3.4877E4,2.6644E4],"tree_param":{"num_deleted":"0","num_feature":"10","num_nodes":"15","size_leaf_vector":"1"}},{"base_weights":[6.9251865E-7,-2.9543144E-4,1.6511239E-3,-5.2983547E-4,1.7629683E-3,1.2951762E-3,5.802825E-3,-1.8712929E-4,1.6246777E-4,8.01019E-4,2.4612697E-5,8.103248E-4,1.1177834E-4,5.496428E-5,1.414161E-3],"categories":[],"categories_nodes":[],"categories_segments":[],"categories_sizes":[],"default_left":[0,0,0,0,0,0,0,0,0,0,0,0,0,0,0],"id":15,"left_children":[1,3,5,7,9,11,13,-1,-1,-1,-1,-1,-1,-1,-1],"loss_changes":[3.5292667E-1,2.941162E-1,1.5882382E-1,2.9887745E-1,2.2675267E-1,2.0335594E-1,5.6359977E-2,0E0,0E0,0E0,0E0,0E0,0E0,0E0,0E0],"parents":[2147483647,0,0,1,1,2,2,3,3,4,4,5,5,6,6],"right_children":[2,4,6,8,10,12,14,-1,-1,-1,-1,-1,-1,-1,-1],"split_conditions":[1.0415198E-2,2.3E1,1.5661135E-2,1.149E5,1.8E4,1.44E4,2.67E4,-1.8712929E-4,1.6246777E-4,8.01019E-4,2.4612697E-5,8.103248E-4,1.1177834E-4,5.496428E-5,1.414161E-3],"split_indices":[9,4,9,0,0,0,0,0,0,0,0,0,0,0,0],"split_type":[0,0,0,0,0,0,0,0,0,0,0,0,0,0,0],"sum_hessian":[7.2073E5,6.10834E5,1.09896E5,5.48607E5,6.2227E4,1.01335E5,8.561E3,4.2153E5,1.27077E5,2.6155E4,3.6072E4,2.1214E4,8.0121E4,1.672E3,6.889E3],"tree_param":{"num_deleted":"0","num_feature":"10","num_nodes":"15","size_leaf_vector":"1"}},{"base_weights":[1.2697448E-6,-1.8132882E-3,2.4737036E-4,6.0679077E-4,-2.220628E-3,-1.7157625E-3,4.4455458E-4,-2.7756297E-4,2.848374E-4,-6.143134E-4,-1.0732353E-4,-1.2496181E-3,5.7266803E-5,3.781843E-4,-1.4693085E-5],"categories":[],"categories_nodes":[],"categories_segments":[],"categories_sizes":[],"default_left":[0,0,0,0,0,0,0,0,0,0,0,0,0,0,0],"id":16,"left_children":[1,3,5,7,9,11,13,-1,-1,-1,-1,-1,-1,-1,-1],"loss_changes":[3.2107344E-1,8.542836E-2,2.4513957E-1,1.9907333E-2,1.0372168E-1,5.267593E-1,4.333673E-1,0E0,0E0,0E0,0E0,0E0,0E0,0E0,0E0],"parents":[2147483647,0,0,1,1,2,2,3,3,4,4,5,5,6,6],"right_children":[2,4,6,8,10,12,14,-1,-1,-1,-1,-1,-1,-1,-1],"split_conditions":[5.69161E-3,1.47E4,5E-1,1.1E1,6E4,1.56E4,1.8E4,-2.7756297E-4,2.848374E-4,-6.143134E-4,-1.0732353E-4,-1.2496181E-3,5.7266803E-5,3.781843E-4,-1.4693085E-5],"split_indices":[9,0,6,2,0,0,0,0,0,0,0,0,0,0,0],"split_type":[0,0,0,0,0,0,0,0,0,0,0,0,0,0,0],"sum_hessian":[7.2073E5,8.5829E4,6.34901E5,1.2188E4,7.3641E4,5.7716E4,5.77185E5,3.364E3,8.824E3,4.8721E4,2.492E4,1.7757E4,3.9959E4,1.52458E5,4.24727E5],"tree_param":{"num_deleted":"0","num_feature":"10","num_nodes":"15","size_leaf_vector":"1"}},{"base_weights":[5.886467E-7,-6.7828974E-4,4.8185838E-4,-9.5920445E-4,1.4282943E-3,1.2624371E-4,2.6245129E-3,2.8252614E-5,-2.649434E-4,4.6603978E-4,8.205491E-5,2.1846041E-4,-2.0545539E-4,4.206067E-4,1.1700517E-3],"categories":[],"categories_nodes":[],"categories_segments":[],"categories_sizes":[],"default_left":[0,0,0,0,0,0,0,0,0,0,0,0,0,0,0],"id":17,"left_children":[1,3,5,7,9,11,13,-1,-1,-1,-1,-1,-1,-1,-1],"loss_changes":[2.3538457E-1,1.7644951E-1,3.2030928E-1,1.0663821E-1,3.0687928E-2,4.0376598E-1,9.6714824E-2,0E0,0E0,0E0,0E0,0E0,0E0,0E0,0E0],"parents":[2147483647,0,0,1,1,2,2,3,3,4,4,5,5,6,6],"right_children":[2,4,6,8,10,12,14,-1,-1,-1,-1,-1,-1,-1,-1],"split_conditions":[7.51634E-3,1.749E5,1.149E5,1.53E4,1.2E0,5.07E4,1.632E5,2.8252614E-5,-2.649434E-4,4.6603978E-4,8.205491E-5,2.1846041E-4,-2.0545539E-4,4.206067E-4,1.1700517E-3],"split_indices":[9,0,0,0,1,0,0,0,0,0,0,0,0,0,0],"split_type":[0,0,0,0,0,0,0,0,0,0,0,0,0,0,0],"sum_hessian":[7.2073E5,2.98552E5,4.22178E5,2.63636E5,3.4916E4,3.62288E5,5.989E4,6.5392E4,1.98244E5,1.825E4,1.6666E4,1.97401E5,1.64887E5,5.1696E4,8.194E3],"tree_param":{"num_deleted":"0","num_feature":"10","num_nodes":"15","size_leaf_vector":"1"}},{"base_weights":[9.001304E-7,-1.1885201E-4,2.678137E-3,-2.1074407E-3,4.2140888E-5,9.646812E-4,3.814944E-3,-1.1135222E-3,-9.793237E-5,2.6502452E-4,-6.995597E-5,6.13848E-4,-9.267823E-5,5.257429E-4,1.1583199E-3],"categories":[],"categories_nodes":[],"categories_segments":[],"categories_sizes":[],"default_left":[0,0,0,0,0,0,0,0,0,0,0,0,0,0,0],"id":18,"left_children":[1,3,5,7,9,11,13,-1,-1,-1,-1,-1,-1,-1,-1],"loss_changes":[2.3235239E-1,2.2184059E-1,5.80478E-2,2.8741592E-1,3.2120317E-1,3.9061647E-2,3.904736E-2,0E0,0E0,0E0,0E0,0E0,0E0,0E0,0E0],"parents":[2147483647,0,0,1,1,2,2,3,3,4,4,5,5,6,6],"right_children":[2,4,6,8,10,12,14,-1,-1,-1,-1,-1,-1,-1,-1],"split_conditions":[1.2837925E-2,5E-1,3.3E4,1.56E4,1.53E4,1.3E0,1.5661135E-2,-1.1135222E-3,-9.793237E-5,2.6502452E-4,-6.995597E-5,6.13848E-4,-9.267823E-5,5.257429E-4,1.1583199E-3],"split_indices":[9,6,0,0,0,1,9,0,0,0,0,0,0,0,0],"split_type":[0,0,0,0,0,0,0,0,0,0,0,0,0,0,0],"sum_hessian":[7.2073E5,6.89698E5,3.1032E4,5.1883E4,6.37815E5,1.2556E4,1.8476E4,1.6427E4,3.5456E4,1.49542E5,4.88273E5,5.215E3,7.341E3,1.1712E4,6.764E3],"tree_param":{"num_deleted":"0","num_feature":"10","num_nodes":"15","size_leaf_vector":"1"}},{"base_weights":[5.901858E-7,-1.8653921E-4,1.3150874E-3,-3.5848387E-4,1.3537682E-3,5.009772E-4,3.7166444E-3,-2.1871294E-5,-3.357169E-4,-3.1292788E-5,5.88736E-4,5.343146E-4,-6.363979E-5,3.317111E-4,1.2144814E-3],"categories":[],"categories_nodes":[],"categories_segments":[],"categories_sizes":[],"default_left":[0,0,0,0,0,0,0,0,0,0,0,0,0,0,0],"id":19,"left_children":[1,3,5,7,9,11,13,-1,-1,-1,-1,-1,-1,-1,-1],"loss_changes":[1.7785268E-1,1.6651505E-1,1.7413701E-1,1.8576106E-1,1.527467E-1,1.2118137E-1,1.05982155E-1,0E0,0E0,0E0,0E0,0E0,0E0,0E0,0E0],"parents":[2147483647,0,0,1,1,2,2,3,3,4,4,5,5,6,6],"right_children":[2,4,6,8,10,12,14,-1,-1,-1,-1,-1,-1,-1,-1],"split_conditions":[1.0763097E-2,2.3E1,7.47E4,2.1E1,6.7676767E-3,1.872E4,1.2E0,-2.1871294E-5,-3.357169E-4,-3.1292788E-5,5.88736E-4,5.343146E-4,-6.363979E-5,3.317111E-4,1.2144814E-3],"split_indices":[9,4,0,4,9,0,1,0,0,0,0,0,0,0,0],"split_type":[0,0,0,0,0,0,0,0,0,0,0,0,0,0,0],"sum_hessian":[7.2073E5,6.30585E5,9.0145E4,5.67557E5,6.3028E4,6.7483E4,2.2662E4,4.77776E5,8.9781E4,3.2165E4,3.0863E4,1.8654E4,4.8829E4,1.2213E4,1.0449E4],"tree_param":{"num_deleted":"0","num_feature":"10","num_nodes":"15","size_leaf_vector":"1"}},{"base_weights":[3.4852962E-7,-1.7527667E-3,1.2577722E-4,-2.1686195E-3,-0E0,-7.461958E-5,1.1871642E-3,-4.913985E-4,2.455731E-4,1.3176503E-4,-8.0576504E-4,-4.6961146E-4,8.171565E-6,1.3343075E-4,7.1207574E-4],"categories":[],"categories_nodes":[],"categories_segments":[],"categories_sizes":[],"default_left":[0,0,0,0,0,0,0,0,0,0,0,0,0,0,0],"id":20,"left_children":[1,3,5,7,9,11,13,-1,-1,-1,-1,-1,-1,-1,-1],"loss_changes":[1.5767069E-1,3.5141423E-2,1.4367795E-1,3.8568795E-2,2.3836855E-2,1.4964774E-1,1.3024844E-1,0E0,0E0,0E0,0E0,0E0,0E0,0E0,0E0],"parents":[2147483647,0,0,1,1,2,2,3,3,4,4,5,5,6,6],"right_children":[2,4,6,8,10,12,14,-1,-1,-1,-1,-1,-1,-1,-1],"split_conditions":[5.3968253E-3,1.3E0,1.314E5,1.896E5,9.78E4,7E-1,8.385865E-3,-4.913985E-4,2.455731E-4,1.3176503E-4,-8.0576504E-4,-4.6961146E-4,8.171565E-6,1.3343075E-4,7.1207574E-4],"split_indices":[9,1,0,0,0,3,9,0,0,0,0,0,0,0,0],"split_type":[0,0,0,0,0,0,0,0,0,0,0,0,0,0,0],"sum_hessian":[7.2073E5,4.7852E4,6.72878E5,3.873E4,9.122E3,5.65619E5,1.07259E5,3.5836E4,2.894E3,7.869E3,1.253E3,2.7546E4,5.38073E5,8.8159E4,1.91E4],"tree_param":{"num_deleted":"0","num_feature":"10","num_nodes":"15","size_leaf_vector":"1"}},{"base_weights":[4.1271755E-7,-1.0645894E-4,1.7270165E-3,-2.0644777E-3,6.095516E-7,-1.5178788E-3,2.0446E-3,-6.4850197E-4,-3.9245457E-5,2.4442165E-4,-5.6452554E-5,-6.2359084E-4,2.370009E-4,5.8332685E-4,1.26722E-4],"categories":[],"categories_nodes":[],"categories_segments":[],"categories_sizes":[],"default_left":[0,0,0,0,0,0,0,0,0,0,0,0,0,0,0],"id":21,"left_children":[1,3,5,7,9,11,13,-1,-1,-1,-1,-1,-1,-1,-1],"loss_changes":[1.3380483E-1,1.4326489E-1,4.385361E-2,7.622747E-2,2.2266114E-1,1.6692683E-2,4.578042E-2,0E0,0E0,0E0,0E0,0E0,0E0,0E0,0E0],"parents":[2147483647,0,0,1,1,2,2,3,3,4,4,5,5,6,6],"right_children":[2,4,6,8,10,12,14,-1,-1,-1,-1,-1,-1,-1,-1],"split_conditions":[1.2272222E-2,6E0,6E0,6.54E4,1E1,1.36572E-2,1.6E1,-6.4850197E-4,-3.9245457E-5,2.4442165E-4,-5.6452554E-5,-6.2359084E-4,2.370009E-4,5.8332685E-4,1.26722E-4],"split_indices":[9,2,4,0,2,9,4,0,0,0,0,0,0,0,0],"split_type":[0,0,0,0,0,0,0,0,0,0,0,0,0,0,0],"sum_hessian":[7.2073E5,6.78451E5,4.2279E4,3.5413E4,6.43038E5,3.627E3,3.8652E4,2.1552E4,1.3861E4,1.21242E5,5.21796E5,2.394E3,1.233E3,2.3666E4,1.4986E4],"tree_param":{"num_deleted":"0","num_feature":"10","num_nodes":"15","size_leaf_vector":"1"}},{"base_weights":[1.907316E-7,-1.2694014E-4,1.2336302E-3,4.7719615E-5,-1.1344096E-3,4.8133745E-3,7.3131477E-4,-4.2515877E-4,2.9791636E-5,-5.261848E-5,-6.341363E-4,-2.918711E-4,1.2191021E-3,4.6528783E-4,-1.4113946E-4],"categories":[],"categories_nodes":[],"categories_segments":[],"categories_sizes":[],"default_left":[0,0,0,0,0,0,0,0,0,0,0,0,0,0,0],"id":22,"left_children":[1,3,5,7,9,11,13,-1,-1,-1,-1,-1,-1,-1,-1],"loss_changes":[1.135713E-1,1.154531E-1,1.1896893E-1,1.2138458E-1,1.7021686E-1,6.838335E-2,1.3722588E-1,0E0,0E0,0E0,0E0,0E0,0E0,0E0,0E0],"parents":[2147483647,0,0,1,1,2,2,3,3,4,4,5,5,6,6],"right_children":[2,4,6,8,10,12,14,-1,-1,-1,-1,-1,-1,-1,-1],"split_conditions":[2.3E1,2.1E1,1.6E1,7E-1,2E1,2E0,1.872E4,-4.2515877E-4,2.9791636E-5,-5.261848E-5,-6.341363E-4,-2.918711E-4,1.2191021E-3,4.6528783E-4,-1.4113946E-4],"split_indices":[4,4,2,3,2,2,0,0,0,0,0,0,0,0,0],"split_type":[0,0,0,0,0,0,0,0,0,0,0,0,0,0,0],"sum_hessian":[7.2073E5,6.53022E5,6.7708E4,5.56119E5,9.6903E4,8.204E3,5.9504E4,2.4526E4,5.31593E5,6.804E4,2.8863E4,1.326E3,6.878E3,2.8364E4,3.114E4],"tree_param":{"num_deleted":"0","num_feature":"10","num_nodes":"15","size_leaf_vector":"1"}},{"base_weights":[-0E0,-2.5638565E-4,5.8339856E-4,-7.7015365E-4,2.908384E-4,4.773865E-4,5.0057983E-3,7.013003E-4,-1.8693709E-4,9.0036506E-4,-2.7037064E-5,3.324066E-4,1.50876385E-5,4.7529046E-4,1.4249694E-3],"categories":[],"categories_nodes":[],"categories_segments":[],"categories_sizes":[],"default_left":[0,0,0,0,0,0,0,0,0,0,0,0,0,0,0],"id":23,"left_children":[1,3,5,7,9,11,13,-1,-1,-1,-1,-1,-1,-1,-1],"loss_changes":[1.07906446E-1,1.409061E-1,1.0058173E-1,1.8064058E-1,4.3598512E-1,1.01681694E-1,2.3296267E-2,0E0,0E0,0E0,0E0,0E0,0E0,0E0,0E0],"parents":[2147483647,0,0,1,1,2,2,3,3,4,4,5,5,6,6],"right_children":[2,4,6,8,10,12,14,-1,-1,-1,-1,-1,-1,-1,-1],"split_conditions":[9.236111E-3,3.21E4,1.407E5,9.6E3,5.25E4,1.47E4,1.2E0,7.013003E-4,-1.8693709E-4,9.0036506E-4,-2.7037064E-5,3.324066E-4,1.50876385E-5,4.7529046E-4,1.4249694E-3],"split_indices":[9,0,0,0,0,0,1,0,0,0,0,0,0,0,0],"split_type":[0,0,0,0,0,0,0,0,0,0,0,0,0,0,0],"sum_hessian":[7.2073E5,5.00323E5,2.20407E5,2.5852E5,2.41803E5,2.15363E5,5.044E3,9.461E3,2.49059E5,2.2319E4,2.19484E5,5.4241E4,1.61122E5,2.361E3,2.683E3],"tree_param":{"num_deleted":"0","num_feature":"10","num_nodes":"15","size_leaf_vector":"1"}},{"base_weights":[2.3227345E-7,-1.243957E-3,1.1650712E-4,-4.9178507E-3,-2.8711424E-4,9.039279E-4,-1.6463669E-4,-1.1630364E-3,-6.694155E-4,-2.9902736E-4,2.6915615E-4,-1.746859E-3,2.261116E-4,-2.0710789E-4,4.914538E-5],"categories":[],"categories_nodes":[],"categories_segments":[],"categories_sizes":[],"default_left":[0,0,0,0,0,0,0,0,0,0,0,0,0,0,0],"id":24,"left_children":[1,3,5,7,9,11,13,-1,-1,-1,-1,-1,-1,-1,-1],"loss_changes":[1.0370424E-1,2.1264166E-1,1.4637126E-1,1.3002396E-2,9.613527E-2,3.7629157E-1,1.7391638E-1,0E0,0E0,0E0,0E0,0E0,0E0,0E0,0E0],"parents":[2147483647,0,0,1,1,2,2,3,3,4,4,5,5,6,6],"right_children":[2,4,6,8,10,12,14,-1,-1,-1,-1,-1,-1,-1,-1],"split_conditions":[5E-1,1.38E4,1.8E4,1.2E0,7.74E4,7E-1,3.3E4,-1.1630364E-3,-6.694155E-4,-2.9902736E-4,2.6915615E-4,-1.746859E-3,2.261116E-4,-2.0710789E-4,4.914538E-5],"split_indices":[6,0,0,1,0,1,0,0,0,0,0,0,0,0,0],"split_type":[0,0,0,0,0,0,0,0,0,0,0,0,0,0,0],"sum_hessian":[7.2073E5,6.1227E4,6.59503E5,1.2539E4,4.8688E4,1.73983E5,4.8552E5,7.769E3,4.77E3,2.8161E4,2.0527E4,3.942E3,1.70041E5,1.5589E5,3.2963E5],"tree_param":{"num_deleted":"0","num_feature":"10","num_nodes":"15","size_leaf_vector":"1"}},{"base_weights":[-0E0,-5.736784E-5,2.4028656E-3,-1.6949445E-4,1.2210102E-3,-2.928206E-3,3.1589714E-3,6.990585E-5,-7.9184174E-5,1.0134045E-4,7.541697E-4,3.2715136E-4,-8.2960114E-4,8.1062765E-4,2.2983724E-4],"categories":[],"categories_nodes":[],"categories_segments":[],"categories_sizes":[],"default_left":[0,0,0,0,0,0,0,0,0,0,0,0,0,0,0],"id":25,"left_children":[1,3,5,7,9,11,13,-1,-1,-1,-1,-1,-1,-1,-1],"loss_changes":[1.0009496E-1,1.0035883E-1,6.8424135E-2,7.610866E-2,1.0056599E-1,1.25579E-2,2.4180844E-2,0E0,0E0,0E0,0E0,0E0,0E0,0E0,0E0],"parents":[2147483647,0,0,1,1,2,2,3,3,4,4,5,5,6,6],"right_children":[2,4,6,8,10,12,14,-1,-1,-1,-1,-1,-1,-1,-1],"split_conditions":[1.4009662E-2,1.617E5,2.01E4,1.872E4,7.296849E-3,9E-1,2E1,6.990585E-5,-7.9184174E-5,1.0134045E-4,7.541697E-4,3.2715136E-4,-8.2960114E-4,8.1062765E-4,2.2983724E-4],"split_indices":[9,0,0,0,9,1,2,0,0,0,0,0,0,0,0],"split_type":[0,0,0,0,0,0,0,0,0,0,0,0,0,0,0],"sum_hessian":[7.2073E5,7.038E5,1.693E4,6.47411E5,5.6389E4,2.019E3,1.4911E4,1.95976E5,4.51435E5,4.4207E4,1.2182E4,3.39E2,1.68E3,1.0144E4,4.767E3],"tree_param":{"num_deleted":"0","num_feature":"10","num_nodes":"15","size_leaf_vector":"1"}},{"base_weights":[2.2309597E-7,-1.3315767E-3,8.974079E-5,-1.6707503E-3,9.467207E-5,3.326308E-6,1.5365538E-3,-6.857917E-4,-2.5465302E-4,2.7698895E-4,-3.514668E-4,-1.6437225E-5,2.6255797E-4,2.55523E-4,1.4641761E-3],"categories":[],"categories_nodes":[],"categories_segments":[],"categories_sizes":[],"default_left":[0,0,0,0,0,0,0,0,0,0,0,0,0,0,0],"id":26,"left_children":[1,3,5,7,9,11,13,-1,-1,-1,-1,-1,-1,-1,-1],"loss_changes":[8.530545E-2,2.2577718E-2,8.3709575E-2,2.325572E-2,1.9838812E-2,7.20501E-2,5.2205935E-2,0E0,0E0,0E0,0E0,0E0,0E0,0E0,0E0],"parents":[2147483647,0,0,1,1,2,2,3,3,4,4,5,5,6,6],"right_children":[2,4,6,8,10,12,14,-1,-1,-1,-1,-1,-1,-1,-1],"split_conditions":[5.3668763E-3,1.3E0,1.692E5,4.743811E-3,1.6E0,1.2364571E-2,2.2E1,-6.857917E-4,-2.5465302E-4,2.7698895E-4,-3.514668E-4,-1.6437225E-5,2.6255797E-4,2.55523E-4,1.4641761E-3],"split_indices":[9,3,0,9,1,9,4,0,0,0,0,0,0,0,0],"split_type":[0,0,0,0,0,0,0,0,0,0,0,0,0,0,0],"sum_hessian":[7.2073E5,4.5037E4,6.75693E5,3.6667E4,8.37E3,6.37941E5,3.7752E4,6.522E3,3.0145E4,5.093E3,3.277E3,5.98481E5,3.946E4,3.6223E4,1.529E3],"tree_param":{"num_deleted":"0","num_feature":"10","num_nodes":"15","size_leaf_vector":"1"}},{"base_weights":[4.571628E-8,-1.0461239E-3,9.793544E-5,-4.011091E-3,-2.7193088E-4,2.5354107E-3,3.5994173E-5,-1.6904235E-4,-8.933162E-4,-1.5335176E-4,4.9845024E-4,-1.8148385E-3,5.934998E-4,-1.4774344E-5,2.1751375E-4],"categories":[],"categories_nodes":[],"categories_segments":[],"categories_sizes":[],"default_left":[0,0,0,0,0,0,0,0,0,0,0,0,0,0,0],"id":27,"left_children":[1,3,5,7,9,11,13,-1,-1,-1,-1,-1,-1,-1,-1],"loss_changes":[7.3336355E-2,1.3840842E-1,9.8286554E-2,1.5413985E-2,6.5748826E-2,7.806563E-2,7.483708E-2,0E0,0E0,0E0,0E0,0E0,0E0,0E0,0E0],"parents":[2147483647,0,0,1,1,2,2,3,3,4,4,5,5,6,6],"right_children":[2,4,6,8,10,12,14,-1,-1,-1,-1,-1,-1,-1,-1],"split_conditions":[5E-1,1.38E4,9.9E3,6E-1,1.182E5,7E-1,2.3E1,-1.6904235E-4,-8.933162E-4,-1.5335176E-4,4.9845024E-4,-1.8148385E-3,5.934998E-4,-1.4774344E-5,2.1751375E-4],"split_indices":[6,0,0,1,0,1,4,0,0,0,0,0,0,0,0],"split_type":[0,0,0,0,0,0,0,0,0,0,0,0,0,0,0],"sum_hessian":[7.2073E5,6.1227E4,6.59503E5,1.2539E4,4.8688E4,1.6139E4,6.43364E5,1.717E3,1.0822E4,4.1452E4,7.236E3,5.34E2,1.5605E4,5.82079E5,6.1285E4],"tree_param":{"num_deleted":"0","num_feature":"10","num_nodes":"15","size_leaf_vector":"1"}},{"base_weights":[-0E0,-3.2643127E-4,3.0270952E-4,-7.6401216E-4,2.3548247E-4,-2.7838965E-5,1.4499483E-3,-2.2334319E-4,2.5762396E-5,8.0129626E-4,-8.733141E-5,1.8166412E-4,-2.9570487E-4,6.669935E-4,1.8237226E-4],"categories":[],"categories_nodes":[],"categories_segments":[],"categories_sizes":[],"default_left":[0,0,0,0,0,0,0,0,0,0,0,0,0,0,0],"id":28,"left_children":[1,3,5,7,9,11,13,-1,-1,-1,-1,-1,-1,-1,-1],"loss_changes":[7.121393E-2,8.5447796E-2,1.4265409E-1,6.1984733E-2,3.8496494E-1,3.944684E-1,8.3125845E-2,0E0,0E0,0E0,0E0,0E0,0E0,0E0,0E0],"parents":[2147483647,0,0,1,1,2,2,3,3,4,4,5,5,6,6],"right_children":[2,4,6,8,10,12,14,-1,-1,-1,-1,-1,-1,-1,-1],"split_conditions":[7.913746E-3,3.21E4,8.64E4,1.3E0,7.05E4,5.07E4,1.1E1,-2.2334319E-4,2.5762396E-5,8.0129626E-4,-8.733141E-5,1.8166412E-4,-2.9570487E-4,6.669935E-4,1.8237226E-4],"split_indices":[9,0,0,1,0,0,2,0,0,0,0,0,0,0,0],"split_type":[0,0,0,0,0,0,0,0,0,0,0,0,0,0,0],"sum_hessian":[7.2073E5,3.46431E5,3.74299E5,1.95262E5,1.51169E5,2.90242E5,8.4057E4,1.40369E5,5.4893E4,2.2977E4,1.28192E5,1.76196E5,1.14046E5,1.8454E4,6.5603E4],"tree_param":{"num_deleted":"0","num_feature":"10","num_nodes":"15","size_leaf_vector":"1"}},{"base_weights":[-0E0,-3.139934E-5,2.6549678E-3,-1.0585617E-3,5.9385777E-5,-2.3109915E-4,3.4276193E-3,-3.7874116E-4,1.2276808E-4,-4.674488E-4,2.2977727E-5,-0E0,-1.2341243E-3,5.4875435E-4,9.104183E-4],"categories":[],"categories_nodes":[],"categories_segments":[],"categories_sizes":[],"default_left":[0,0,0,0,0,0,0,0,0,0,0,0,0,0,0],"id":29,"left_children":[1,3,5,7,9,11,13,-1,-1,-1,-1,-1,-1,-1,-1],"loss_changes":[6.108263E-2,6.691088E-2,2.0703748E-2,8.204662E-2,8.587153E-2,3.489634E-3,1.5908852E-3,0E0,0E0,0E0,0E0,0E0,0E0,0E0,0E0],"parents":[2147483647,0,0,1,1,2,2,3,3,4,4,5,5,6,6],"right_children":[2,4,6,8,10,12,14,-1,-1,-1,-1,-1,-1,-1,-1],"split_conditions":[1.5661135E-2,5E-1,2.67E4,7.74E4,7E-1,2.49E4,1.810764E-2,-3.7874116E-4,1.2276808E-4,-4.674488E-4,2.2977727E-5,-0E0,-1.2341243E-3,5.4875435E-4,9.104183E-4],"split_indices":[9,6,0,0,3,0,9,0,0,0,0,0,0,0,0],"split_type":[0,0,0,0,0,0,0,0,0,0,0,0,0,0,0],"sum_hessian":[7.2073E5,7.12169E5,8.561E3,5.8276E4,6.53893E5,1.672E3,6.889E3,3.9066E4,1.921E4,1.4592E4,6.39301E5,1.583E3,8.9E1,4.571E3,2.318E3],"tree_param":{"num_deleted":"0","num_feature":"10","num_nodes":"15","size_leaf_vector":"1"}},{"base_weights":[-0E0,3.7042072E-4,-2.2902609E-4,1.202984E-3,-1.698203E-5,-1.7340076E-3,6.259449E-5,-2.83558E-4,3.4246707E-4,4.1481308E-4,-5.17602E-5,-1.448118E-3,-2.2739563E-4,3.8403814E-4,-2.8831695E-5],"categories":[],"categories_nodes":[],"categories_segments":[],"categories_sizes":[],"default_left":[0,0,0,0,0,0,0,0,0,0,0,0,0,0,0],"id":30,"left_children":[1,3,5,7,9,11,13,-1,-1,-1,-1,-1,-1,-1,-1],"loss_changes":[6.1207034E-2,8.964663E-2,1.9598013E-1,1.17746264E-1,9.416879E-2,2.3395939E-1,1.4383438E-1,0E0,0E0,0E0,0E0,0E0,0E0,0E0,0E0],"parents":[2147483647,0,0,1,1,2,2,3,3,4,4,5,5,6,6],"right_children":[2,4,6,8,10,12,14,-1,-1,-1,-1,-1,-1,-1,-1],"split_conditions":[9E-1,1.2E1,1.2E0,6E0,4E0,1.26E4,1.14E4,-2.83558E-4,3.4246707E-4,4.1481308E-4,-5.17602E-5,-1.448118E-3,-2.2739563E-4,3.8403814E-4,-2.8831695E-5],"split_indices":[1,2,1,2,4,0,0,0,0,0,0,0,0,0,0],"split_type":[0,0,0,0,0,0,0,0,0,0,0,0,0,0,0],"sum_hessian":[7.2073E5,2.76098E5,4.44632E5,8.8082E4,1.88016E5,7.2446E4,3.72186E5,1.4172E4,7.391E4,1.9271E4,1.68745E5,6.999E3,6.5447E4,3.7514E4,3.34672E5],"tree_param":{"num_deleted":"0","num_feature":"10","num_nodes":"15","size_leaf_vector":"1"}},{"base_weights":[-0E0,-2.5279214E-5,3.2067325E-3,-7.007351E-4,1.0408516E-4,1.9031198E-3,8.356735E-3,1.1832661E-4,-2.0460784E-4,4.241095E-6,2.615739E-4,1.4124373E-4,6.5061584E-4,-0E0,1.6790613E-3],"categories":[],"categories_nodes":[],"categories_segments":[],"categories_sizes":[],"default_left":[0,0,0,0,0,0,0,0,0,0,0,0,0,0,0],"id":31,"left_children":[1,3,5,7,9,11,13,-1,-1,-1,-1,-1,-1,-1,-1],"loss_changes":[5.889599E-2,6.278031E-2,3.2943983E-2,4.8352752E-2,5.9147403E-2,5.4720994E-3,3.3833832E-4,0E0,0E0,0E0,0E0,0E0,0E0,0E0,0E0],"parents":[2147483647,0,0,1,1,2,2,3,3,4,4,5,5,6,6],"right_children":[2,4,6,8,10,12,14,-1,-1,-1,-1,-1,-1,-1,-1],"split_conditions":[2.31E5,5.911111E-3,5.7865786E-3,1.53E4,1.617E5,9E-1,7E-1,1.1832661E-4,-2.0460784E-4,4.241095E-6,2.615739E-4,1.4124373E-4,6.5061584E-4,-0E0,1.6790613E-3],"split_indices":[0,9,9,0,0,3,1,0,0,0,0,0,0,0,0],"split_type":[0,0,0,0,0,0,0,0,0,0,0,0,0,0,0],"sum_hessian":[7.2073E5,7.15052E5,5.678E3,1.15553E5,5.99499E5,4.614E3,1.064E3,2.2755E4,9.2798E4,5.61276E5,3.8223E4,2.646E3,1.968E3,5E0,1.059E3],"tree_param":{"num_deleted":"0","num_feature":"10","num_nodes":"15","size_leaf_vector":"1"}},{"base_weights":[1.8370139E-7,-1.1608717E-4,6.509765E-4,-1.4203954E-3,-4.3530712E-5,1.2812162E-3,-5.434641E-4,-1.0181703E-3,-2.0304481E-4,1.4874079E-4,-4.6380297E-5,9.0633745E-5,5.17906E-4,-1.6493662E-4,1.2334003E-3],"categories":[],"categories_nodes":[],"categories_segments":[],"categories_sizes":[],"default_left":[0,0,0,0,0,0,0,0,0,0,0,0,0,0,0],"id":32,"left_children":[1,3,5,7,9,11,13,-1,-1,-1,-1,-1,-1,-1,-1],"loss_changes":[5.480457E-2,5.707508E-2,8.310406E-2,4.42516E-2,8.560868E-2,7.670878E-2,6.847756E-2,0E0,0E0,0E0,0E0,0E0,0E0,0E0,0E0],"parents":[2147483647,0,0,1,1,2,2,3,3,4,4,5,5,6,6],"right_children":[2,4,6,8,10,12,14,-1,-1,-1,-1,-1,-1,-1,-1],"split_conditions":[1.0415198E-2,6E0,1.3E0,1.98E4,1E1,1.2E0,9.87E4,-1.0181703E-3,-2.0304481E-4,1.4874079E-4,-4.6380297E-5,9.0633745E-5,5.17906E-4,-1.6493662E-4,1.2334003E-3],"split_indices":[9,2,1,0,2,3,0,0,0,0,0,0,0,0,0],"split_type":[0,0,0,0,0,0,0,0,0,0,0,0,0,0,0],"sum_hessian":[7.2073E5,6.10834E5,1.09896E5,3.1821E4,5.79013E5,7.2212E4,3.7684E4,3.035E3,2.8786E4,1.11281E5,4.67732E5,4.4461E4,2.7751E4,3.6244E4,1.44E3],"tree_param":{"num_deleted":"0","num_feature":"10","num_nodes":"15","size_leaf_vector":"1"}},{"base_weights":[1.19651E-8,-7.6733515E-5,7.475327E-4,2.8406596E-4,-3.0698988E-4,1.4277648E-4,2.0000308E-3,1.9589705E-4,-4.1837357E-5,-2.9581506E-4,-1.1842991E-5,2.783887E-4,-1.3225364E-4,2.6494727E-4,7.9148106E-4],"categories":[],"categories_nodes":[],"categories_segments":[],"categories_sizes":[],"default_left":[0,0,0,0,0,0,0,0,0,0,0,0,0,0,0],"id":33,"left_children":[1,3,5,7,9,11,13,-1,-1,-1,-1,-1,-1,-1,-1],"loss_changes":[4.1683417E-2,5.4263018E-2,5.0216787E-2,8.7359965E-2,1.1524388E-1,4.6510432E-2,2.612029E-2,0E0,0E0,0E0,0E0,0E0,0E0,0E0,0E0],"parents":[2147483647,0,0,1,1,2,2,3,3,4,4,5,5,6,6],"right_children":[2,4,6,8,10,12,14,-1,-1,-1,-1,-1,-1,-1,-1],"split_conditions":[2.3E1,9E-1,7.870758E-3,5.25E4,1.2E0,1.872E4,9.78E4,1.9589705E-4,-4.1837357E-5,-2.9581506E-4,-1.1842991E-5,2.783887E-4,-1.3225364E-4,2.6494727E-4,7.9148106E-4],"split_indices":[4,1,9,0,1,0,0,0,0,0,0,0,0,0,0],"split_type":[0,0,0,0,0,0,0,0,0,0,0,0,0,0,0],"sum_hessian":[7.2073E5,6.53022E5,6.7708E4,2.5355E5,3.99472E5,4.5934E4,2.1774E4,1.05632E5,1.47918E5,6.9354E4,3.30118E5,1.823E4,2.7704E4,1.6385E4,5.389E3],"tree_param":{"num_deleted":"0","num_feature":"10","num_nodes":"15","size_leaf_vector":"1"}},{"base_weights":[-0E0,-2.640711E-5,2.2566577E-3,-2.8592502E-4,2.1403038E-4,9.33718E-4,6.453107E-3,-7.7005476E-5,2.2133913E-4,1.0876557E-4,-1.0328072E-4,-1.1928117E-4,3.8653708E-4,-0E0,1.2960373E-3],"categories":[],"categories_nodes":[],"categories_segments":[],"categories_sizes":[],"default_left":[0,0,0,0,0,0,0,0,0,0,0,0,0,0,0],"id":34,"left_children":[1,3,5,7,9,11,13,-1,-1,-1,-1,-1,-1,-1,-1],"loss_changes":[4.3869518E-2,4.447743E-2,4.3559846E-2,4.7051586E-2,8.8834405E-2,1.0719493E-2,3.470108E-4,0E0,0E0,0E0,0E0,0E0,0E0,0E0,0E0],"parents":[2147483647,0,0,1,1,2,2,3,3,4,4,5,5,6,6],"right_children":[2,4,6,8,10,12,14,-1,-1,-1,-1,-1,-1,-1,-1],"split_conditions":[2.142E5,7.969349E-3,5.79798E-3,2.3E1,1.3E0,1.2E1,7E-1,-7.7005476E-5,2.2133913E-4,1.0876557E-4,-1.0328072E-4,-1.1928117E-4,3.8653708E-4,-0E0,1.2960373E-3],"split_indices":[0,9,9,2,1,2,1,0,0,0,0,0,0,0,0],"split_type":[0,0,0,0,0,0,0,0,0,0,0,0,0,0,0],"sum_hessian":[7.2073E5,7.12218E5,8.512E3,3.43518E5,3.687E5,6.567E3,1.945E3,3.21035E5,2.2483E4,2.54484E5,1.14216E5,2.397E3,4.17E3,8E0,1.937E3],"tree_param":{"num_deleted":"0","num_feature":"10","num_nodes":"15","size_leaf_vector":"1"}},{"base_weights":[-0E0,-1.1209742E-3,4.6181598E-5,-1.8504909E-3,-2.2792658E-6,-9.643924E-6,1.0603989E-3,-4.3390082E-5,-5.964366E-4,7.008507E-4,-2.1089427E-4,-1.4668544E-5,1.8061958E-4,5.8690546E-4,1.1662786E-4],"categories":[],"categories_nodes":[],"categories_segments":[],"categories_sizes":[],"default_left":[0,0,0,0,0,0,0,0,0,0,0,0,0,0,0],"id":35,"left_children":[1,3,5,7,9,11,13,-1,-1,-1,-1,-1,-1,-1,-1],"loss_changes":[3.6841154E-2,2.2041284E-2,3.9739724E-2,2.9388212E-2,4.079538E-2,3.7725717E-2,3.0970212E-2,0E0,0E0,0E0,0E0,0E0,0E0,0E0,0E0],"parents":[2147483647,0,0,1,1,2,2,3,3,4,4,5,5,6,6],"right_children":[2,4,6,8,10,12,14,-1,-1,-1,-1,-1,-1,-1,-1],"split_conditions":[5.1984037E-3,6.45E4,1.716E5,2.61E4,8.64E4,1.2272222E-2,5E-1,-4.3390082E-5,-5.964366E-4,7.008507E-4,-2.1089427E-4,-1.4668544E-5,1.8061958E-4,5.8690546E-4,1.1662786E-4],"split_indices":[9,0,0,0,0,9,8,0,0,0,0,0,0,0,0],"split_type":[0,0,0,0,0,0,0,0,0,0,0,0,0,0,0],"sum_hessian":[7.2073E5,2.8138E4,6.92592E5,1.6759E4,1.1379E4,6.55996E5,3.6596E4,7.042E3,9.717E3,2.514E3,8.865E3,6.13718E5,4.2278E4,7.21E3,2.9386E4],"tree_param":{"num_deleted":"0","num_feature":"10","num_nodes":"15","size_leaf_vector":"1"}},{"base_weights":[-0E0,-9.815502E-4,4.597735E-5,-5.5018472E-3,-1.2489385E-4,1.8888415E-3,1.3058624E-5,-5.1763206E-4,-1.8988587E-3,-2.5135707E-4,3.3885363E-4,-2.920567E-4,7.7091635E-4,-1.1830768E-5,1.4816869E-4],"categories":[],"categories_nodes":[],"categories_segments":[],"categories_sizes":[],"default_left":[0,0,0,0,0,0,0,0,0,0,0,0,0,0,0],"id":36,"left_children":[1,3,5,7,9,11,13,-1,-1,-1,-1,-1,-1,-1,-1],"loss_changes":[3.219472E-2,1.20730236E-1,4.0836923E-2,5.188328E-2,5.52227E-2,7.905555E-2,3.592184E-2,0E0,0E0,0E0,0E0,0E0,0E0,0E0,0E0],"parents":[2147483647,0,0,1,1,2,2,3,3,4,4,5,5,6,6],"right_children":[2,4,6,8,10,12,14,-1,-1,-1,-1,-1,-1,-1,-1],"split_conditions":[7E-1,1.23E4,9.6E3,5E-1,8.13E4,5E-1,2.3E1,-5.1763206E-4,-1.8988587E-3,-2.5135707E-4,3.3885363E-4,-2.920567E-4,7.7091635E-4,-1.1830768E-5,1.4816869E-4],"split_indices":[3,0,0,6,0,8,4,0,0,0,0,0,0,0,0],"split_type":[0,0,0,0,0,0,0,0,0,0,0,0,0,0,0],"sum_hessian":[7.2073E5,3.19E4,6.8883E5,4.985E3,2.6915E4,1.1817E4,6.77013E5,2.959E3,2.026E3,1.6762E4,1.0153E4,4.277E3,7.54E3,6.15281E5,6.1732E4],"tree_param":{"num_deleted":"0","num_feature":"10","num_nodes":"15","size_leaf_vector":"1"}},{"base_weights":[-0E0,-2.2584925E-5,1.8865095E-3,-7.5183134E-4,4.16473E-5,-2.8395216E-4,2.4856438E-3,-5.399506E-4,-4.713359E-5,-3.6902088E-4,1.7101693E-5,-2.5360947E-4,3.4725698E-4,6.039152E-4,2.4093711E-4],"categories":[],"categories_nodes":[],"categories_segments":[],"categories_sizes":[],"default_left":[0,0,0,0,0,0,0,0,0,0,0,0,0,0,0],"id":37,"left_children":[1,3,5,7,9,11,13,-1,-1,-1,-1,-1,-1,-1,-1],"loss_changes":[3.0848956E-2,3.3714276E-2,1.2243586E-2,5.71275E-2,5.323441E-2,3.110943E-3,2.5848001E-3,0E0,0E0,0E0,0E0,0E0,0E0,0E0,0E0],"parents":[2147483647,0,0,1,1,2,2,3,3,4,4,5,5,6,6],"right_children":[2,4,6,8,10,12,14,-1,-1,-1,-1,-1,-1,-1,-1],"split_conditions":[1.5661135E-2,5E-1,2.67E4,1.35E4,7E-1,1.6E0,8.34E4,-5.399506E-4,-4.713359E-5,-3.6902088E-4,1.7101693E-5,-2.5360947E-4,3.4725698E-4,6.039152E-4,2.4093711E-4],"split_indices":[9,6,0,0,3,1,0,0,0,0,0,0,0,0,0],"split_type":[0,0,0,0,0,0,0,0,0,0,0,0,0,0,0],"sum_hessian":[7.2073E5,7.12169E5,8.561E3,5.8276E4,6.53893E5,1.672E3,6.889E3,1.2E4,4.6276E4,1.4592E4,6.39301E5,1.292E3,3.8E2,4.582E3,2.307E3],"tree_param":{"num_deleted":"0","num_feature":"10","num_nodes":"15","size_leaf_vector":"1"}},{"base_weights":[-0E0,3.6844116E-4,-1.11774076E-4,1.1119191E-3,-3.247581E-4,2.4793038E-4,-3.414018E-4,-1.2467892E-4,3.9844887E-4,1.1361926E-4,-5.018372E-4,-1.1819216E-4,1.2462288E-4,-1.9901017E-4,7.585214E-5],"categories":[],"categories_nodes":[],"categories_segments":[],"categories_sizes":[],"default_left":[0,0,0,0,0,0,0,0,0,0,0,0,0,0,0],"id":38,"left_children":[1,3,5,7,9,11,13,-1,-1,-1,-1,-1,-1,-1,-1],"loss_changes":[2.969702E-2,8.6918645E-2,4.571211E-2,1.2496878E-1,1.6975345E-1,6.755136E-2,1.5966573E-1,0E0,0E0,0E0,0E0,0E0,0E0,0E0,0E0],"parents":[2147483647,0,0,1,1,2,2,3,3,4,4,5,5,6,6],"right_children":[2,4,6,8,10,12,14,-1,-1,-1,-1,-1,-1,-1,-1],"split_conditions":[1.1E1,1.4E1,9E-1,7.334656E-3,7.05E4,5E-1,1.7E1,-1.2467892E-4,3.9844887E-4,1.1361926E-4,-5.018372E-4,-1.1819216E-4,1.2462288E-4,-1.9901017E-4,7.585214E-5],"split_indices":[4,2,1,9,0,7,2,0,0,0,0,0,0,0,0],"split_type":[0,0,0,0,0,0,0,0,0,0,0,0,0,0,0],"sum_hessian":[7.2073E5,1.67878E5,5.52852E5,8.1348E4,8.653E4,2.14565E5,3.38287E5,2.7188E4,5.416E4,6.1264E4,2.5266E4,6.5894E4,1.48671E5,1.77754E5,1.60533E5],"tree_param":{"num_deleted":"0","num_feature":"10","num_nodes":"15","size_leaf_vector":"1"}},{"base_weights":[-0E0,-2.8415474E-5,1.4097595E-3,-1.608513E-4,2.6156605E-4,8.6628407E-4,6.475482E-3,5.545888E-4,-3.655965E-5,1.4284095E-4,-6.977799E-5,3.8792318E-4,-5.550343E-5,-0E0,1.3101826E-3],"categories":[],"categories_nodes":[],"categories_segments":[],"categories_sizes":[],"default_left":[0,0,0,0,0,0,0,0,0,0,0,0,0,0,0],"id":39,"left_children":[1,3,5,7,9,11,13,-1,-1,-1,-1,-1,-1,-1,-1],"loss_changes":[2.89369E-2,2.708097E-2,3.5596006E-2,3.001045E-2,6.1058804E-2,1.6775142E-2,5.8386475E-4,0E0,0E0,0E0,0E0,0E0,0E0,0E0,0E0],"parents":[2147483647,0,0,1,1,2,2,3,3,4,4,5,5,6,6],"right_children":[2,4,6,8,10,12,14,-1,-1,-1,-1,-1,-1,-1,-1],"split_conditions":[2.01E5,9.236111E-3,6.7213112E-3,9.3E3,1.7E1,1.2E0,7E-1,5.545888E-4,-3.655965E-5,1.4284095E-4,-6.977799E-5,3.8792318E-4,-5.550343E-5,-0E0,1.3101826E-3],"split_indices":[0,9,9,0,4,1,1,0,0,0,0,0,0,0,0],"split_type":[0,0,0,0,0,0,0,0,0,0,0,0,0,0,0],"sum_hessian":[7.2073E5,7.06462E5,1.4268E4,4.86158E5,2.20304E5,1.298E4,1.288E3,3.436E3,4.82722E5,1.26974E5,9.333E4,6.92E3,6.06E3,1.6E1,1.272E3],"tree_param":{"num_deleted":"0","num_feature":"10","num_nodes":"15","size_leaf_vector":"1"}},{"base_weights":[-0E0,1.1573515E-4,-3.170431E-4,2.982104E-3,6.5789565E-5,-5.657835E-4,6.424592E-4,5.6234563E-5,2.1382533E-3,-3.4204957E-5,1.4981297E-4,-2.597479E-5,-4.8518527E-4,3.2451283E-4,-4.126878E-4],"categories":[],"categories_nodes":[],"categories_segments":[],"categories_sizes":[],"default_left":[0,0,0,0,0,0,0,0,0,0,0,0,0,0,0],"id":40,"left_children":[1,3,5,7,9,11,13,-1,-1,-1,-1,-1,-1,-1,-1],"loss_changes":[2.641591E-2,7.411411E-2,4.5882057E-2,1.7933494E-1,8.434511E-2,1.2294662E-1,1.0374926E-1,0E0,0E0,0E0,0E0,0E0,0E0,0E0,0E0],"parents":[2147483647,0,0,1,1,2,2,3,3,4,4,5,5,6,6],"right_children":[2,4,6,8,10,12,14,-1,-1,-1,-1,-1,-1,-1,-1],"split_conditions":[2E1,4E0,2.3E1,3E0,8.43E4,2.1E1,2.4E1,5.6234563E-5,2.1382533E-3,-3.4204957E-5,1.4981297E-4,-2.597479E-5,-4.8518527E-4,3.2451283E-4,-4.126878E-4],"split_indices":[2,4,4,4,0,4,4,0,0,0,0,0,0,0,0],"split_type":[0,0,0,0,0,0,0,0,0,0,0,0,0,0,0],"sum_hessian":[7.2073E5,5.28339E5,1.92391E5,8.872E3,5.19467E5,1.53199E5,3.9192E4,6.622E3,2.25E3,3.85225E5,1.34242E5,1.24336E5,2.8863E4,2.8908E4,1.0284E4],"tree_param":{"num_deleted":"0","num_feature":"10","num_nodes":"15","size_leaf_vector":"1"}},{"base_weights":[-0E0,-7.1363593E-4,4.231135E-5,-4.0799975E-3,-3.680165E-4,6.4390834E-4,-9.266733E-5,-4.0088888E-4,-1.0655549E-3,-1.5610157E-4,2.1239324E-4,6.040008E-5,8.2606747E-4,-6.2656746E-4,-1.395265E-5],"categories":[],"categories_nodes":[],"categories_segments":[],"categories_sizes":[],"default_left":[0,0,0,0,0,0,0,0,0,0,0,0,0,0,0],"id":41,"left_children":[1,3,5,7,9,11,13,-1,-1,-1,-1,-1,-1,-1,-1],"loss_changes":[2.1676015E-2,4.4505477E-2,5.554009E-2,5.616825E-3,2.143443E-2,1.4725317E-1,3.705606E-2,0E0,0E0,0E0,0E0,0E0,0E0,0E0,0E0],"parents":[2147483647,0,0,1,1,2,2,3,3,4,4,5,5,6,6],"right_children":[2,4,6,8,10,12,14,-1,-1,-1,-1,-1,-1,-1,-1],"split_conditions":[6E0,2.01E4,1E1,7.805545E-3,7.38E4,1.7E1,1E0,-4.0088888E-4,-1.0655549E-3,-1.5610157E-4,2.1239324E-4,6.040008E-5,8.2606747E-4,-6.2656746E-4,-1.395265E-5],"split_indices":[2,0,2,9,0,4,4,0,0,0,0,0,0,0,0],"split_type":[0,0,0,0,0,0,0,0,0,0,0,0,0,0,0],"sum_hessian":[7.2073E5,4.0165E4,6.80565E5,3.6E3,3.6565E4,1.2539E5,5.55175E5,1.507E3,2.093E3,2.8652E4,7.913E3,1.14327E5,1.1063E4,3.983E3,5.51192E5],"tree_param":{"num_deleted":"0","num_feature":"10","num_nodes":"15","size_leaf_vector":"1"}},{"base_weights":[-0E0,1.6449307E-4,-1.9251533E-4,-1.1080365E-4,4.686513E-3,-9.994397E-4,1.1743524E-4,-7.825776E-6,-3.961951E-4,-6.933E-4,1.1117824E-3,1.2632126E-3,-3.318783E-4,-1.0095185E-4,1.260821E-4],"categories":[],"categories_nodes":[],"categories_segments":[],"categories_sizes":[],"default_left":[0,0,0,0,0,0,0,0,0,0,0,0,0,0,0],"id":42,"left_children":[1,3,5,7,9,11,13,-1,-1,-1,-1,-1,-1,-1,-1],"loss_changes":[2.2826884E-2,4.857675E-1,8.3570294E-2,4.804717E-2,1.6040254E-1,4.452058E-1,7.6566696E-2,0E0,0E0,0E0,0E0,0E0,0E0,0E0,0E0],"parents":[2147483647,0,0,1,1,2,2,3,3,4,4,5,5,6,6],"right_children":[2,4,6,8,10,12,14,-1,-1,-1,-1,-1,-1,-1,-1],"split_conditions":[5.25E4,3.51E4,7.17E4,2.4E1,6.165884E-3,7.4603176E-3,7.6288353E-3,-7.825776E-6,-3.961951E-4,-6.933E-4,1.1117824E-3,1.2632126E-3,-3.318783E-4,-1.0095185E-4,1.260821E-4],"split_indices":[0,0,0,4,9,9,9,0,0,0,0,0,0,0,0],"split_type":[0,0,0,0,0,0,0,0,0,0,0,0,0,0,0],"sum_hessian":[7.2073E5,3.88362E5,3.32368E5,3.65976E5,2.2386E4,9.2682E4,2.39686E5,3.5273E5,1.3246E4,2.107E3,2.0279E4,7.603E3,8.5079E4,1.07872E5,1.31814E5],"tree_param":{"num_deleted":"0","num_feature":"10","num_nodes":"15","size_leaf_vector":"1"}},{"base_weights":[-0E0,-5.881828E-4,5.4188808E-5,-2.1439763E-3,-1.9800097E-4,-1.4254372E-3,9.003964E-5,-7.5051835E-4,-2.553982E-4,-1.08052685E-4,2.2773519E-4,-6.5242726E-4,3.8604994E-4,1.1158112E-4,-1.6085292E-5],"categories":[],"categories_nodes":[],"categories_segments":[],"categories_sizes":[],"default_left":[0,0,0,0,0,0,0,0,0,0,0,0,0,0,0],"id":43,"left_children":[1,3,5,7,9,11,13,-1,-1,-1,-1,-1,-1,-1,-1],"loss_changes":[2.312036E-2,3.5997305E-2,3.431709E-2,1.4224894E-2,2.222037E-2,9.4824664E-2,5.1620588E-2,0E0,0E0,0E0,0E0,0E0,0E0,0E0,0E0],"parents":[2147483647,0,0,1,1,2,2,3,3,4,4,5,5,6,6],"right_children":[2,4,6,8,10,12,14,-1,-1,-1,-1,-1,-1,-1,-1],"split_conditions":[5E-1,1.35E4,7E-1,1.2E1,1.2E0,7.74E4,1.872E4,-7.5051835E-4,-2.553982E-4,-1.08052685E-4,2.2773519E-4,-6.5242726E-4,3.8604994E-4,1.1158112E-4,-1.6085292E-5],"split_indices":[6,0,3,2,1,0,0,0,0,0,0,0,0,0,0],"split_type":[0,0,0,0,0,0,0,0,0,0,0,0,0,0,0],"sum_hessian":[7.2073E5,6.1227E4,6.59503E5,1.2015E4,4.9212E4,1.5267E4,6.44236E5,4E3,8.015E3,3.948E4,9.732E3,9.963E3,5.304E3,1.72823E5,4.71413E5],"tree_param":{"num_deleted":"0","num_feature":"10","num_nodes":"15","size_leaf_vector":"1"}},{"base_weights":[-0E0,-1.1811761E-4,2.6618564E-4,-1.420741E-4,1.8942333E-3,5.9119E-4,-3.7013183E-4,-4.017954E-5,1.3805606E-4,6.8345966E-5,7.073525E-4,1.0485896E-5,3.107423E-4,-2.2842218E-4,3.6877336E-5],"categories":[],"categories_nodes":[],"categories_segments":[],"categories_sizes":[],"default_left":[0,0,0,0,0,0,0,0,0,0,0,0,0,0,0],"id":44,"left_children":[1,3,5,7,9,11,13,-1,-1,-1,-1,-1,-1,-1,-1],"loss_changes":[2.2597708E-2,2.3245504E-2,4.569413E-2,2.3977155E-2,1.2439441E-2,7.5123765E-2,3.2157592E-2,0E0,0E0,0E0,0E0,0E0,0E0,0E0,0E0],"parents":[2147483647,0,0,1,1,2,2,3,3,4,4,5,5,6,6],"right_children":[2,4,6,8,10,12,14,-1,-1,-1,-1,-1,-1,-1,-1],"split_conditions":[9.236111E-3,2.31E5,1.3E0,2.3E1,9E-1,1.2E0,5E-1,-4.017954E-5,1.3805606E-4,6.8345966E-5,7.073525E-4,1.0485896E-5,3.107423E-4,-2.2842218E-4,3.6877336E-5],"split_indices":[9,0,1,2,3,3,8,0,0,0,0,0,0,0,0],"split_type":[0,0,0,0,0,0,0,0,0,0,0,0,0,0,0],"sum_hessian":[7.2073E5,5.00323E5,2.20407E5,4.94687E5,5.636E3,1.46412E5,7.3995E4,4.62599E5,3.2088E4,3.057E3,2.579E3,9.4206E4,5.2206E4,3.1307E4,4.2688E4],"tree_param":{"num_deleted":"0","num_feature":"10","num_nodes":"15","size_leaf_vector":"1"}},{"base_weights":[-0E0,-7.162605E-4,4.15497E-5,-1.3158129E-3,-3.0073393E-4,-3.5837047E-7,8.034783E-4,-5.901525E-4,-1.5372367E-4,-3.5580153E-5,-7.456423E-4,4.1568735E-5,-5.3707783E-5,1.1121342E-4,7.120789E-4],"categories":[],"categories_nodes":[],"categories_segments":[],"categories_sizes":[],"default_left":[0,0,0,0,0,0,0,0,0,0,0,0,0,0,0],"id":45,"left_children":[1,3,5,7,9,11,13,-1,-1,-1,-1,-1,-1,-1,-1],"loss_changes":[2.1406472E-2,9.01369E-3,2.2156345E-2,1.2128228E-2,8.059407E-3,3.605417E-2,2.2584034E-2,0E0,0E0,0E0,0E0,0E0,0E0,0E0,0E0],"parents":[2147483647,0,0,1,1,2,2,3,3,4,4,5,5,6,6],"right_children":[2,4,6,8,10,12,14,-1,-1,-1,-1,-1,-1,-1,-1],"split_conditions":[5.2748537E-3,1E0,1.716E5,4.878472E-3,2.4E1,5.25E4,7.4904216E-3,-5.901525E-4,-1.5372367E-4,-3.5580153E-5,-7.456423E-4,4.1568735E-5,-5.3707783E-5,1.1121342E-4,7.120789E-4],"split_indices":[9,6,0,9,2,0,9,0,0,0,0,0,0,0,0],"split_type":[0,0,0,0,0,0,0,0,0,0,0,0,0,0,0],"sum_hessian":[7.2073E5,3.9428E4,6.81302E5,1.5643E4,2.3785E4,6.45165E5,3.6137E4,3.688E3,1.1955E4,2.3108E4,6.77E2,3.62148E5,2.83017E5,3.3333E4,2.804E3],"tree_param":{"num_deleted":"0","num_feature":"10","num_nodes":"15","size_leaf_vector":"1"}},{"base_weights":[-0E0,-1.9112082E-5,1.5711121E-3,-4.8884427E-5,8.906388E-4,-1.120571E-3,1.9494694E-3,6.5653267E-6,-1.2070949E-4,-5.972251E-4,3.0393153E-4,-4.4745655E-4,1.0282302E-4,4.915395E-4,1.0979736E-4],"categories":[],"categories_nodes":[],"categories_segments":[],"categories_sizes":[],"default_left":[0,0,0,0,0,0,0,0,0,0,0,0,0,0,0],"id":46,"left_children":[1,3,5,7,9,11,13,-1,-1,-1,-1,-1,-1,-1,-1],"loss_changes":[2.1404391E-2,1.886887E-2,9.149142E-3,3.156419E-2,5.3025525E-2,2.5029585E-3,3.9527044E-3,0E0,0E0,0E0,0E0,0E0,0E0,0E0,0E0],"parents":[2147483647,0,0,1,1,2,2,3,3,4,4,5,5,6,6],"right_children":[2,4,6,8,10,12,14,-1,-1,-1,-1,-1,-1,-1,-1],"split_conditions":[1.5661135E-2,2.4E1,1.98E4,1.6E0,8E0,1.6E0,8.34E4,6.5653267E-6,-1.2070949E-4,-5.972251E-4,3.0393153E-4,-4.4745655E-4,1.0282302E-4,4.915395E-4,1.0979736E-4],"split_indices":[9,2,0,3,4,1,0,0,0,0,0,0,0,0,0],"split_type":[0,0,0,0,0,0,0,0,0,0,0,0,0,0,0],"sum_hessian":[7.2073E5,7.12169E5,8.561E3,6.90138E5,2.2031E4,8.91E2,7.67E3,6.00742E5,8.9396E4,2.962E3,1.9069E4,7.1E2,1.81E2,5.363E3,2.307E3],"tree_param":{"num_deleted":"0","num_feature":"10","num_nodes":"15","size_leaf_vector":"1"}},{"base_weights":[-0E0,2.734344E-4,-8.289222E-5,-1.2130207E-4,1.2118346E-3,2.0370631E-4,-2.6615115E-4,5.0646497E-5,-2.0543707E-4,-1.5249503E-4,4.6362993E-4,1.5650978E-4,-3.0334955E-5,-1.659452E-4,7.095449E-5],"categories":[],"categories_nodes":[],"categories_segments":[],"categories_sizes":[],"default_left":[0,0,0,0,0,0,0,0,0,0,0,0,0,0,0],"id":47,"left_children":[1,3,5,7,9,11,13,-1,-1,-1,-1,-1,-1,-1,-1],"loss_changes":[1.635075E-2,6.273336E-2,2.9068507E-2,4.035702E-2,1.1018277E-1,4.4455156E-2,1.1861981E-1,0E0,0E0,0E0,0E0,0E0,0E0,0E0,0E0],"parents":[2147483647,0,0,1,1,2,2,3,3,4,4,5,5,6,6],"right_children":[2,4,6,8,10,12,14,-1,-1,-1,-1,-1,-1,-1,-1],"split_conditions":[1.1E1,9E0,9E-1,7.05E4,7.1296296E-3,5.25E4,1.7E1,5.0646497E-5,-2.0543707E-4,-1.5249503E-4,4.6362993E-4,1.5650978E-4,-3.0334955E-5,-1.659452E-4,7.095449E-5],"split_indices":[4,4,1,0,9,0,2,0,0,0,0,0,0,0,0],"split_type":[0,0,0,0,0,0,0,0,0,0,0,0,0,0,0],"sum_hessian":[7.2073E5,1.67878E5,5.52852E5,1.17798E5,5.008E4,2.14565E5,3.38287E5,8.2953E4,3.4845E4,1.7823E4,3.2257E4,8.2154E4,1.32411E5,1.77754E5,1.60533E5],"tree_param":{"num_deleted":"0","num_feature":"10","num_nodes":"15","size_leaf_vector":"1"}},{"base_weights":[-0E0,1.050309E-4,-2.8810118E-4,-4.0147093E-5,7.5366034E-4,2.0375922E-4,-7.420754E-4,1.910267E-5,-2.222776E-4,3.2199384E-4,-9.1093374E-5,-3.3121287E-5,3.2592085E-4,-3.0404507E-4,9.279498E-5],"categories":[],"categories_nodes":[],"categories_segments":[],"categories_sizes":[],"default_left":[0,0,0,0,0,0,0,0,0,0,0,0,0,0,0],"id":48,"left_children":[1,3,5,7,9,11,13,-1,-1,-1,-1,-1,-1,-1,-1],"loss_changes":[2.1797728E-2,5.010933E-2,4.32304E-2,6.315677E-2,1.01280525E-1,4.9091097E-2,9.492572E-2,0E0,0E0,0E0,0E0,0E0,0E0,0E0,0E0],"parents":[2147483647,0,0,1,1,2,2,3,3,4,4,5,5,6,6],"right_children":[2,4,6,8,10,12,14,-1,-1,-1,-1,-1,-1,-1,-1],"split_conditions":[2E1,1.8E1,1.7E1,1.6E0,2.1E1,1.3E1,2.3E1,1.910267E-5,-2.222776E-4,3.2199384E-4,-9.1093374E-5,-3.3121287E-5,3.2592085E-4,-3.0404507E-4,9.279498E-5],"split_indices":[2,2,4,3,4,4,4,0,0,0,0,0,0,0,0],"split_type":[0,0,0,0,0,0,0,0,0,0,0,0,0,0,0],"sum_hessian":[7.2073E5,5.28339E5,1.92391E5,4.31086E5,9.7253E4,9.1815E4,1.00576E5,3.8222E5,4.8866E4,5.7174E4,4.0079E4,7.2649E4,1.9166E4,6.1384E4,3.9192E4],"tree_param":{"num_deleted":"0","num_feature":"10","num_nodes":"15","size_leaf_vector":"1"}},{"base_weights":[-0E0,-6.174097E-4,4.3305237E-5,3.7322025E-4,-2.6838747E-3,1.8098358E-3,-7.853851E-6,-2.1676296E-5,4.7082972E-4,3.098284E-4,-7.380392E-4,1.5797156E-4,9.0414716E-4,-1.4530768E-4,1.400314E-5],"categories":[],"categories_nodes":[],"categories_segments":[],"categories_sizes":[],"default_left":[0,0,0,0,0,0,0,0,0,0,0,0,0,0,0],"id":49,"left_children":[1,3,5,7,9,11,13,-1,-1,-1,-1,-1,-1,-1,-1],"loss_changes":[1.9241476E-2,9.7707815E-2,6.1774965E-2,3.1386584E-2,6.689984E-2,5.0507218E-2,3.6948267E-2,0E0,0E0,0E0,0E0,0E0,0E0,0E0,0E0],"parents":[2147483647,0,0,1,1,2,2,3,3,4,4,5,5,6,6],"right_children":[2,4,6,8,10,12,14,-1,-1,-1,-1,-1,-1,-1,-1],"split_conditions":[1.11E4,1.02E4,1.14E4,1.0492486E-2,6.9057667E-3,9.87988E-3,1.38E4,-2.1676296E-5,4.7082972E-4,3.098284E-4,-7.380392E-4,1.5797156E-4,9.0414716E-4,-1.4530768E-4,1.400314E-5],"split_indices":[0,0,0,9,9,9,0,0,0,0,0,0,0,0,0],"split_type":[0,0,0,0,0,0,0,0,0,0,0,0,0,0,0],"sum_hessian":[7.2073E5,4.7158E4,6.73572E5,3.1716E4,1.5442E4,1.9228E4,6.54344E5,2.5314E4,6.402E3,2.87E3,1.2572E4,1.411E4,5.118E3,6.4591E4,5.89753E5],"tree_param":{"num_deleted":"0","num_feature":"10","num_nodes":"15","size_leaf_vector":"1"}},{"base_weights":[-0E0,-4.6853346E-4,4.387269E-5,-7.32934E-4,1.4343688E-3,-1.1914215E-3,7.393162E-5,-1.9592147E-4,1.8890288E-4,8.924119E-5,2.4997685E-3,-1.2054173E-3,-1.0455276E-5,5.2699965E-5,-2.9484241E-5],"categories":[],"categories_nodes":[],"categories_segments":[],"categories_sizes":[],"default_left":[0,0,0,0,0,0,0,0,0,0,0,0,0,0,0],"id":50,"left_children":[1,3,5,7,9,11,13,-1,-1,-1,-1,-1,-1,-1,-1],"loss_changes":[1.4711299E-2,3.0462097E-2,2.3930298E-2,2.2364728E-2,7.2669074E-2,8.108493E-2,2.7091524E-2,0E0,0E0,0E0,0E0,0E0,0E0,0E0,0E0],"parents":[2147483647,0,0,1,1,2,2,3,3,4,4,5,5,6,6],"right_children":[2,4,6,8,10,12,14,-1,-1,-1,-1,-1,-1,-1,-1],"split_conditions":[5E-1,1.182E5,7E-1,2.2E1,1.2E0,1.41E4,5.25E4,-1.9592147E-4,1.8890288E-4,8.924119E-5,2.4997685E-3,-1.2054173E-3,-1.0455276E-5,5.2699965E-5,-2.9484241E-5],"split_indices":[6,0,3,4,1,0,0,0,0,0,0,0,0,0,0],"split_type":[0,0,0,0,0,0,0,0,0,0,0,0,0,0,0],"sum_hessian":[7.2073E5,6.1227E4,6.59503E5,5.3991E4,7.236E3,1.5267E4,6.44236E5,4.7331E4,6.66E3,6.689E3,5.47E2,2.823E3,1.2444E4,3.4825E5,2.95986E5],"tree_param":{"num_deleted":"0","num_feature":"10","num_nodes":"15","size_leaf_vector":"1"}},{"base_weights":[-0E0,-1.6064534E-4,1.6079066E-4,-9.841181E-5,-1.7514215E-3,3.426656E-3,-8.078997E-5,3.3059023E-5,-8.548799E-5,-1.8132329E-3,-2.785651E-4,1.2119443E-3,2.112676E-5,-1.9705939E-4,1.3987514E-5],"categories":[],"categories_nodes":[],"categories_segments":[],"categories_sizes":[],"default_left":[0,0,0,0,0,0,0,0,0,0,0,0,0,0,0],"id":51,"left_children":[1,3,5,7,9,11,13,-1,-1,-1,-1,-1,-1,-1,-1],"loss_changes":[1.8616939E-2,3.470428E-2,2.8636542E-1,3.0209986E-2,2.9454738E-2,2.1549085E-1,4.6245556E-2,0E0,0E0,0E0,0E0,0E0,0E0,0E0,0E0],"parents":[2147483647,0,0,1,1,2,2,3,3,4,4,5,5,6,6],"right_children":[2,4,6,8,10,12,14,-1,-1,-1,-1,-1,-1,-1,-1],"split_conditions":[3.3E4,2.4E1,5.07E4,1.872E4,1.23E4,2.1E1,5.91E4,3.3059023E-5,-8.548799E-5,-1.8132329E-3,-2.785651E-4,1.2119443E-3,2.112676E-5,-1.9705939E-4,1.3987514E-5],"split_indices":[0,4,0,0,0,4,0,0,0,0,0,0,0,0,0],"split_type":[0,0,0,0,0,0,0,0,0,0,0,0,0,0,0],"sum_hessian":[7.2073E5,3.59896E5,3.60834E5,3.46654E5,1.3242E4,2.4991E4,3.35843E5,1.91586E5,1.55068E5,5.48E2,1.2694E4,1.3853E4,1.1138E4,4.8441E4,2.87402E5],"tree_param":{"num_deleted":"0","num_feature":"10","num_nodes":"15","size_leaf_vector":"1"}},{"base_weights":[-0E0,-4.1658805E-5,5.8766117E-4,-6.767399E-4,2.0495308E-6,1.185388E-3,-4.0828242E-4,5.252465E-5,-5.409968E-4,2.7327868E-4,-7.918872E-6,-2.5478192E-5,3.1385996E-4,-4.8732813E-4,6.9277434E-5],"categories":[],"categories_nodes":[],"categories_segments":[],"categories_sizes":[],"default_left":[0,0,0,0,0,0,0,0,0,0,0,0,0,0,0],"id":52,"left_children":[1,3,5,7,9,11,13,-1,-1,-1,-1,-1,-1,-1,-1],"loss_changes":[1.7730355E-2,1.9012606E-2,2.8941667E-2,8.516657E-2,3.6385793E-2,1.598633E-2,2.8109774E-2,0E0,0E0,0E0,0E0,0E0,0E0,0E0,0E0],"parents":[2147483647,0,0,1,1,2,2,3,3,4,4,5,5,6,6],"right_children":[2,4,6,8,10,12,14,-1,-1,-1,-1,-1,-1,-1,-1],"split_conditions":[1.2013889E-2,1.11E4,1.8E1,1.02E4,1.14E4,5E-1,9E0,5.252465E-5,-5.409968E-4,2.7327868E-4,-7.918872E-6,-2.5478192E-5,3.1385996E-4,-4.8732813E-4,6.9277434E-5],"split_indices":[9,0,2,0,0,6,4,0,0,0,0,0,0,0,0],"split_type":[0,0,0,0,0,0,0,0,0,0,0,0,0,0,0],"sum_hessian":[7.2073E5,6.72775E5,4.7955E4,4.4053E4,6.28722E5,3.0282E4,1.7673E4,2.9943E4,1.411E4,1.8973E4,6.09749E5,6.558E3,2.3724E4,4.969E3,1.2704E4],"tree_param":{"num_deleted":"0","num_feature":"10","num_nodes":"15","size_leaf_vector":"1"}},{"base_weights":[-0E0,-8.127505E-5,2.6033557E-4,6.397926E-5,-4.3578038E-4,-5.401711E-4,7.550039E-4,-2.4730203E-5,6.306227E-4,1.727851E-3,-1.13397735E-4,-2.5299357E-4,5.222647E-5,3.1902912E-4,1.0036743E-4],"categories":[],"categories_nodes":[],"categories_segments":[],"categories_sizes":[],"default_left":[0,0,0,0,0,0,0,0,0,0,0,0,0,0,0],"id":53,"left_children":[1,3,5,7,9,11,13,-1,-1,-1,-1,-1,-1,-1,-1],"loss_changes":[1.5272221E-2,2.8450783E-2,6.815557E-2,2.2662006E-1,1.871441E-1,3.8398445E-2,2.1620248E-2,0E0,0E0,0E0,0E0,0E0,0E0,0E0,0E0],"parents":[2147483647,0,0,1,1,2,2,3,3,4,4,5,5,6,6],"right_children":[2,4,6,8,10,12,14,-1,-1,-1,-1,-1,-1,-1,-1],"split_conditions":[9.87E4,5.25E4,6.8744635E-3,3.51E4,4E0,1.749E5,1.1E1,-2.4730203E-5,6.306227E-4,1.727851E-3,-1.13397735E-4,-2.5299357E-4,5.222647E-5,3.1902912E-4,1.0036743E-4],"split_indices":[0,0,9,0,4,0,2,0,0,0,0,0,0,0,0],"split_type":[0,0,0,0,0,0,0,0,0,0,0,0,0,0,0],"sum_hessian":[7.2073E5,5.48895E5,1.71835E5,3.88362E5,1.60533E5,6.5243E4,1.06592E5,3.65976E5,2.2386E4,2.229E3,1.58304E5,3.4583E4,3.066E4,2.4219E4,8.2373E4],"tree_param":{"num_deleted":"0","num_feature":"10","num_nodes":"15","size_leaf_vector":"1"}},{"base_weights":[-0E0,-9.8471886E-5,2.2494033E-4,2.0924818E-3,-1.1464961E-4,5.766506E-4,-2.4825652E-4,-5.8312964E-4,1.0935405E-3,-1.2260645E-4,-3.3900258E-6,3.3590455E-5,3.1260203E-4,-3.9479902E-4,1.5067692E-5],"categories":[],"categories_nodes":[],"categories_segments":[],"categories_sizes":[],"default_left":[0,0,0,0,0,0,0,0,0,0,0,0,0,0,0],"id":54,"left_children":[1,3,5,7,9,11,13,-1,-1,-1,-1,-1,-1,-1,-1],"loss_changes":[1.6003978E-2,1.6746225E-2,3.684768E-2,5.9520826E-2,2.3879483E-2,5.0347626E-2,5.3093318E-2,0E0,0E0,0E0,0E0,0E0,0E0,0E0,0E0],"parents":[2147483647,0,0,1,1,2,2,3,3,4,4,5,5,6,6],"right_children":[2,4,6,8,10,12,14,-1,-1,-1,-1,-1,-1,-1,-1],"split_conditions":[9.236111E-3,9.3E3,1.7E1,1E0,1.38E4,1.5E1,1.8E1,-5.8312964E-4,1.0935405E-3,-1.2260645E-4,-3.3900258E-6,3.3590455E-5,3.1260203E-4,-3.9479902E-4,1.5067692E-5],"split_indices":[9,0,4,7,0,4,4,0,0,0,0,0,0,0,0],"split_type":[0,0,0,0,0,0,0,0,0,0,0,0,0,0,0],"sum_hessian":[7.2073E5,5.00323E5,2.20407E5,3.436E3,4.96887E5,1.27039E5,9.3368E4,1.324E3,2.112E3,8.0598E4,4.16289E5,9.0184E4,3.6855E4,1.4983E4,7.8385E4],"tree_param":{"num_deleted":"0","num_feature":"10","num_nodes":"15","size_leaf_vector":"1"}},{"base_weights":[-0E0,-2.4998162E-5,8.0381974E-4,6.8912355E-5,-3.191807E-4,-8.3016424E-4,1.9280526E-3,-1.1276846E-5,1.2588406E-4,1.8033985E-5,-2.290851E-4,-3.45542E-4,1.9551102E-4,2.0582597E-4,6.65366E-4],"categories":[],"categories_nodes":[],"categories_segments":[],"categories_sizes":[],"default_left":[0,0,0,0,0,0,0,0,0,0,0,0,0,0,0],"id":55,"left_children":[1,3,5,7,9,11,13,-1,-1,-1,-1,-1,-1,-1,-1],"loss_changes":[1.467789E-2,1.9428084E-2,4.1045796E-2,3.7392147E-2,5.814795E-2,1.4671352E-2,1.44527815E-2,0E0,0E0,0E0,0E0,0E0,0E0,0E0,0E0],"parents":[2147483647,0,0,1,1,2,2,3,3,4,4,5,5,6,6],"right_children":[2,4,6,8,10,12,14,-1,-1,-1,-1,-1,-1,-1,-1],"split_conditions":[2.4E1,2E1,1.2E0,1.8E1,8.13E4,5E-1,1.6E0,-1.1276846E-5,1.2588406E-4,1.8033985E-5,-2.290851E-4,-3.45542E-4,1.9551102E-4,2.0582597E-4,6.65366E-4],"split_indices":[2,2,3,2,0,8,1,0,0,0,0,0,0,0,0],"split_type":[0,0,0,0,0,0,0,0,0,0,0,0,0,0,0],"sum_hessian":[7.2073E5,6.98694E5,2.2036E4,5.28339E5,1.70355E5,8.801E3,1.3235E4,4.31086E5,9.7253E4,1.13515E5,5.684E4,6.066E3,2.735E3,8.28E3,4.955E3],"tree_param":{"num_deleted":"0","num_feature":"10","num_nodes":"15","size_leaf_vector":"1"}},{"base_weights":[-0E0,-1.221673E-5,1.6081834E-3,-7.18185E-4,1.4547413E-5,9.618332E-4,4.8257345E-3,9.619826E-4,-1.8738818E-4,3.5266596E-4,-6.5263043E-7,6.2896615E-6,3.9840225E-4,-0E0,1.0897473E-3],"categories":[],"categories_nodes":[],"categories_segments":[],"categories_sizes":[],"default_left":[0,0,0,0,0,0,0,0,0,0,0,0,0,0,0],"id":56,"left_children":[1,3,5,7,9,11,13,-1,-1,-1,-1,-1,-1,-1,-1],"loss_changes":[1.4804401E-2,1.3862614E-2,8.901742E-3,3.0496603E-2,2.231719E-2,3.6537508E-3,2.0721406E-3,0E0,0E0,0E0,0E0,0E0,0E0,0E0,0E0],"parents":[2147483647,0,0,1,1,2,2,3,3,4,4,5,5,6,6],"right_children":[2,4,6,8,10,12,14,-1,-1,-1,-1,-1,-1,-1,-1],"split_conditions":[2.31E5,2E0,5.820106E-3,1.1E1,3E0,9E-1,9E0,9.619826E-4,-1.8738818E-4,3.5266596E-4,-6.5263043E-7,6.2896615E-6,3.9840225E-4,-0E0,1.0897473E-3],"split_indices":[0,4,9,2,4,3,2,0,0,0,0,0,0,0,0],"split_type":[0,0,0,0,0,0,0,0,0,0,0,0,0,0,0],"sum_hessian":[7.2073E5,7.15052E5,5.678E3,2.6796E4,6.88256E5,4.863E3,8.15E2,9.29E2,2.5867E4,7.217E3,6.81039E5,2.813E3,2.05E3,1.07E2,7.08E2],"tree_param":{"num_deleted":"0","num_feature":"10","num_nodes":"15","size_leaf_vector":"1"}},{"base_weights":[2.0820293E-7,-1.0913995E-5,1.474299E-3,-4.5655863E-4,2.856899E-5,-0E0,1.6387787E-3,-1.3593049E-4,2.1542849E-4,-2.1540649E-4,1.0986196E-5,-2.3623036E-4,-0E0,1.4442038E-4,4.801314E-4],"categories":[],"categories_nodes":[],"categories_segments":[],"categories_sizes":[],"default_left":[0,0,0,0,0,0,0,0,0,0,0,0,0,0,0],"id":57,"left_children":[1,3,5,7,9,11,13,-1,-1,-1,-1,-1,-1,-1,-1],"loss_changes":[1.2548316E-2,1.2794862E-2,2.157203E-3,2.0068608E-2,1.8602744E-2,3.362239E-4,2.2320207E-3,0E0,0E0,0E0,0E0,0E0,0E0,0E0,0E0],"parents":[2147483647,0,0,1,1,2,2,3,3,4,4,5,5,6,6],"right_children":[2,4,6,8,10,12,14,-1,-1,-1,-1,-1,-1,-1,-1],"split_conditions":[1.6507937E-2,5E-1,1.872E4,1.182E5,7E-1,1.6E0,1.810764E-2,-1.3593049E-4,2.1542849E-4,-2.1540649E-4,1.0986196E-5,-2.3623036E-4,-0E0,1.4442038E-4,4.801314E-4],"split_indices":[9,6,0,0,3,1,9,0,0,0,0,0,0,0,0],"split_type":[0,0,0,0,0,0,0,0,0,0,0,0,0,0,0],"sum_hessian":[7.2073E5,7.15001E5,5.729E3,5.9218E4,6.55783E5,2.9E2,5.439E3,5.1985E4,7.233E3,1.4826E4,6.40957E5,2.36E2,5.4E1,2.771E3,2.668E3],"tree_param":{"num_deleted":"0","num_feature":"10","num_nodes":"15","size_leaf_vector":"1"}},{"base_weights":[2.565696E-7,-8.811457E-4,1.8432884E-5,-2.4022611E-3,1.9807291E-4,9.634602E-6,2.9419358E-3,-2.1087621E-4,-1.0472503E-3,-3.7926904E-4,3.870824E-4,5.377051E-5,-1.3277421E-5,2.3730296E-4,8.533829E-4],"categories":[],"categories_nodes":[],"categories_segments":[],"categories_sizes":[],"default_left":[0,0,0,0,0,0,0,0,0,0,0,0,0,0,0],"id":58,"left_children":[1,3,5,7,9,11,13,-1,-1,-1,-1,-1,-1,-1,-1],"loss_changes":[1.1115364E-2,2.4098586E-2,1.6702516E-2,1.9769274E-2,2.9169435E-2,1.3990008E-2,1.7834678E-3,0E0,0E0,0E0,0E0,0E0,0E0,0E0,0E0],"parents":[2147483647,0,0,1,1,2,2,3,3,4,4,5,5,6,6],"right_children":[2,4,6,8,10,12,14,-1,-1,-1,-1,-1,-1,-1,-1],"split_conditions":[4.9563046E-3,6.45E4,2.505E5,3.21E4,5E-1,1E1,5.3968253E-3,-2.1087621E-4,-1.0472503E-3,-3.7926904E-4,3.870824E-4,5.377051E-5,-1.3277421E-5,2.3730296E-4,8.533829E-4],"split_indices":[9,0,0,0,7,2,9,0,0,0,0,0,0,0,0],"split_type":[0,0,0,0,0,0,0,0,0,0,0,0,0,0,0],"sum_hessian":[7.2073E5,1.4002E4,7.06728E5,6.001E3,8.001E3,7.04783E5,1.945E3,4.191E3,1.81E3,3.497E3,4.504E3,1.61311E5,5.43472E5,1.003E3,9.42E2],"tree_param":{"num_deleted":"0","num_feature":"10","num_nodes":"15","size_leaf_vector":"1"}},{"base_weights":[6.524219E-8,-7.915511E-5,1.821613E-4,1.5511879E-4,-2.1526245E-4,3.160917E-3,1.3340825E-4,5.4950127E-5,-3.1265395E-4,-2.1838909E-4,-1.9742763E-5,6.93964E-4,-0E0,8.782204E-6,3.4867687E-4],"categories":[],"categories_nodes":[],"categories_segments":[],"categories_sizes":[],"default_left":[0,0,0,0,0,0,0,0,0,0,0,0,0,0,0],"id":59,"left_children":[1,3,5,7,9,11,13,-1,-1,-1,-1,-1,-1,-1,-1],"loss_changes":[1.0448691E-2,1.5983896E-2,3.0359711E-2,3.6877815E-2,3.187777E-2,4.5715235E-3,3.0377913E-2,0E0,0E0,0E0,0E0,0E0,0E0,0E0,0E0],"parents":[2147483647,0,0,1,1,2,2,3,3,4,4,5,5,6,6],"right_children":[2,4,6,8,10,12,14,-1,-1,-1,-1,-1,-1,-1,-1],"split_conditions":[9.236111E-3,1.3E1,9.242424E-3,8.917811E-3,1.4E1,1.47E4,1.197E5,5.4950127E-5,-3.1265395E-4,-2.1838909E-4,-1.9742763E-5,6.93964E-4,-0E0,8.782204E-6,3.4867687E-4],"split_indices":[9,4,9,9,4,0,0,0,0,0,0,0,0,0,0],"split_type":[0,0,0,0,0,0,0,0,0,0,0,0,0,0,0],"sum_hessian":[7.2073E5,5.00323E5,2.20407E5,1.82508E5,3.17815E5,3.379E3,2.17028E5,1.70905E5,1.1603E4,3.6785E4,2.8103E5,3.183E3,1.96E2,2.05898E5,1.113E4],"tree_param":{"num_deleted":"0","num_feature":"10","num_nodes":"15","size_leaf_vector":"1"}},{"base_weights":[-0E0,-5.942908E-4,2.3628929E-5,1.7508066E-3,-1.0604953E-3,8.381896E-4,-4.75628E-7,4.983821E-4,-2.0588923E-4,4.9480493E-4,-2.7798145E-4,-4.1953754E-4,5.622422E-4,-1.6899785E-5,7.8096804E-5],"categories":[],"categories_nodes":[],"categories_segments":[],"categories_sizes":[],"default_left":[0,0,0,0,0,0,0,0,0,0,0,0,0,0,0],"id":60,"left_children":[1,3,5,7,9,11,13,-1,-1,-1,-1,-1,-1,-1,-1],"loss_changes":[9.85412E-3,2.8968807E-2,1.4044032E-2,9.540142E-3,2.5718747E-2,1.19370975E-1,2.1968173E-2,0E0,0E0,0E0,0E0,0E0,0E0,0E0,0E0],"parents":[2147483647,0,0,1,1,2,2,3,3,4,4,5,5,6,6],"right_children":[2,4,6,8,10,12,14,-1,-1,-1,-1,-1,-1,-1,-1],"split_conditions":[2E0,1.44E4,4E0,6.3501294E-3,1.8E1,6.288889E-3,1.266E5,4.983821E-4,-2.0588923E-4,4.9480493E-4,-2.7798145E-4,-4.1953754E-4,5.622422E-4,-1.6899785E-5,7.8096804E-5],"split_indices":[4,0,4,9,2,9,0,0,0,0,0,0,0,0,0],"split_type":[0,0,0,0,0,0,0,0,0,0,0,0,0,0,0],"sum_hessian":[7.2073E5,2.6799E4,6.93931E5,4.264E3,2.2535E4,2.0536E4,6.73395E5,3.509E3,7.55E2,1.789E3,2.0746E4,8.152E3,1.2384E4,5.55329E5,1.18066E5],"tree_param":{"num_deleted":"0","num_feature":"10","num_nodes":"15","size_leaf_vector":"1"}},{"base_weights":[-0E0,-1.2376528E-4,1.2135286E-4,1.17823205E-4,-1.0709809E-3,6.72577E-4,-7.917745E-5,8.549433E-5,-5.43702E-5,-8.1637595E-4,-9.748691E-5,6.705529E-5,3.960005E-4,-1.1731115E-4,6.0687005E-5],"categories":[],"categories_nodes":[],"categories_segments":[],"categories_sizes":[],"default_left":[0,0,0,0,0,0,0,0,0,0,0,0,0,0,0],"id":61,"left_children":[1,3,5,7,9,11,13,-1,-1,-1,-1,-1,-1,-1,-1],"loss_changes":[1.0824077E-2,8.17782E-2,4.0693875E-2,3.41852E-2,1.2530042E-1,4.2123616E-2,5.203573E-2,0E0,0E0,0E0,0E0,0E0,0E0,0E0,0E0],"parents":[2147483647,0,0,1,1,2,2,3,3,4,4,5,5,6,6],"right_children":[2,4,6,8,10,12,14,-1,-1,-1,-1,-1,-1,-1,-1],"split_conditions":[1.2E0,9E-1,1.53E4,7.05E4,1.47E4,1.38E4,3.21E4,8.549433E-5,-5.43702E-5,-8.1637595E-4,-9.748691E-5,6.705529E-5,3.960005E-4,-1.1731115E-4,6.0687005E-5],"split_indices":[3,3,0,0,0,0,0,0,0,0,0,0,0,0,0],"split_type":[0,0,0,0,0,0,0,0,0,0,0,0,0,0,0],"sum_hessian":[7.2073E5,3.55275E5,3.65455E5,2.82659E5,7.2616E4,9.8147E4,2.67308E5,1.58217E5,1.24442E5,1.1645E4,6.0971E4,7.8328E4,1.9819E4,1.15478E5,1.5183E5],"tree_param":{"num_deleted":"0","num_feature":"10","num_nodes":"15","size_leaf_vector":"1"}},{"base_weights":[-0E0,-3.2382897E-5,4.605188E-4,-5.551712E-5,6.6424016E-4,-6.3951185E-4,8.503387E-4,3.3078703E-7,-9.11109E-5,8.554768E-6,5.128723E-4,-3.399784E-4,1.5133258E-4,1.3051955E-3,1.0348808E-4],"categories":[],"categories_nodes":[],"categories_segments":[],"categories_sizes":[],"default_left":[0,0,0,0,0,0,0,0,0,0,0,0,0,0,0],"id":62,"left_children":[1,3,5,7,9,11,13,-1,-1,-1,-1,-1,-1,-1,-1],"loss_changes":[1.08767515E-2,1.05382325E-2,2.0674044E-2,1.5135241E-2,2.3411315E-2,1.8563543E-2,6.400594E-2,0E0,0E0,0E0,0E0,0E0,0E0,0E0,0E0],"parents":[2147483647,0,0,1,1,2,2,3,3,4,4,5,5,6,6],"right_children":[2,4,6,8,10,12,14,-1,-1,-1,-1,-1,-1,-1,-1],"split_conditions":[1.2013889E-2,2.4E1,9E0,1.6E0,1.6E0,1E0,1E1,3.3078703E-7,-9.11109E-5,8.554768E-6,5.128723E-4,-3.399784E-4,1.5133258E-4,1.3051955E-3,1.0348808E-4],"split_indices":[9,2,4,3,1,7,4,0,0,0,0,0,0,0,0],"split_type":[0,0,0,0,0,0,0,0,0,0,0,0,0,0,0],"sum_hessian":[7.2073E5,6.72775E5,4.7955E4,6.5185E5,2.0925E4,1.2211E4,3.5744E4,5.69251E5,8.2599E4,1.597E4,4.955E3,7.143E3,5.068E3,1.892E3,3.3852E4],"tree_param":{"num_deleted":"0","num_feature":"10","num_nodes":"15","size_leaf_vector":"1"}},{"base_weights":[2.0491733E-7,1.2206733E-4,-1.0188962E-4,4.1506406E-5,1.6808307E-3,-1.3487643E-3,2.8513809E-5,-1.03108805E-5,1.5484245E-4,1.6398031E-4,7.879701E-4,-8.227153E-4,-1.1305146E-4,-3.9965624E-5,6.6647444E-5],"categories":[],"categories_nodes":[],"categories_segments":[],"categories_sizes":[],"default_left":[0,0,0,0,0,0,0,0,0,0,0,0,0,0,0],"id":63,"left_children":[1,3,5,7,9,11,13,-1,-1,-1,-1,-1,-1,-1,-1],"loss_changes":[8.977166E-3,4.067808E-2,6.4064264E-2,2.1829817E-2,2.8626379E-2,7.84154E-2,2.4606002E-2,0E0,0E0,0E0,0E0,0E0,0E0,0E0,0E0],"parents":[2147483647,0,0,1,1,2,2,3,3,4,4,5,5,6,6],"right_children":[2,4,6,8,10,12,14,-1,-1,-1,-1,-1,-1,-1,-1],"split_conditions":[1.5E1,2.1E1,1.6E1,1.1045752E-2,1.2E0,2.22E4,5E-1,-1.03108805E-5,1.5484245E-4,1.6398031E-4,7.879701E-4,-8.227153E-4,-1.1305146E-4,-3.9965624E-5,6.6647444E-5],"split_indices":[2,4,2,9,1,0,8,0,0,0,0,0,0,0,0],"split_type":[0,0,0,0,0,0,0,0,0,0,0,0,0,0,0],"sum_hessian":[7.2073E5,3.30789E5,3.89941E5,3.14843E5,1.5946E4,3.7279E4,3.52662E5,2.7876E5,3.6083E4,1.1711E4,4.235E3,8.086E3,2.9193E4,2.0066E5,1.52002E5],"tree_param":{"num_deleted":"0","num_feature":"10","num_nodes":"15","size_leaf_vector":"1"}},{"base_weights":[2.6255265E-8,1.0741532E-4,-1.21556106E-4,-2.0943127E-5,3.593735E-3,-7.537567E-4,2.1581594E-5,5.2813234E-6,-2.6747087E-4,2.8611685E-4,1.4773243E-3,1.0380355E-3,-2.952106E-4,-2.6183078E-4,3.5438363E-5],"categories":[],"categories_nodes":[],"categories_segments":[],"categories_sizes":[],"default_left":[0,0,0,0,0,0,0,0,0,0,0,0,0,0,0],"id":64,"left_children":[1,3,5,7,9,11,13,-1,-1,-1,-1,-1,-1,-1,-1],"loss_changes":[9.4033545E-3,1.7402539E-1,3.0757636E-2,2.3786396E-2,1.08811066E-1,2.6714242E-1,5.6009598E-2,0E0,0E0,0E0,0E0,0E0,0E0,0E0,0E0],"parents":[2147483647,0,0,1,1,2,2,3,3,4,4,5,5,6,6],"right_children":[2,4,6,8,10,12,14,-1,-1,-1,-1,-1,-1,-1,-1],"split_conditions":[5.07E4,3.87E4,6.45E4,2.4E1,5E-1,7.5925817E-3,7E0,5.2813234E-6,-2.6747087E-4,2.8611685E-4,1.4773243E-3,1.0380355E-3,-2.952106E-4,-2.6183078E-4,3.5438363E-5],"split_indices":[0,0,0,4,8,9,4,0,0,0,0,0,0,0,0],"split_type":[0,0,0,0,0,0,0,0,0,0,0,0,0,0,0],"sum_hessian":[7.2073E5,3.84887E5,3.35843E5,3.71086E5,1.3801E4,6.2642E4,2.73201E5,3.5784E5,1.3246E4,8.877E3,4.924E3,6.709E3,5.5933E4,2.8262E4,2.44939E5],"tree_param":{"num_deleted":"0","num_feature":"10","num_nodes":"15","size_leaf_vector":"1"}},{"base_weights":[1.7348829E-7,2.0674885E-4,-6.165171E-5,-8.086722E-5,8.9320197E-4,-1.4106412E-3,-3.8816914E-5,-5.5367517E-4,-3.2509154E-6,-2.3509511E-4,2.9707077E-4,-4.8823335E-4,-0E0,-7.8563506E-5,6.8330733E-6],"categories":[],"categories_nodes":[],"categories_segments":[],"categories_sizes":[],"default_left":[0,0,0,0,0,0,0,0,0,0,0,0,0,0,0],"id":65,"left_children":[1,3,5,7,9,11,13,-1,-1,-1,-1,-1,-1,-1,-1],"loss_changes":[9.277525E-3,3.3552505E-2,1.6305149E-2,1.9063601E-2,6.151634E-2,1.3181027E-2,1.4234672E-2,0E0,0E0,0E0,0E0,0E0,0E0,0E0,0E0],"parents":[2147483647,0,0,1,1,2,2,3,3,4,4,5,5,6,6],"right_children":[2,4,6,8,10,12,14,-1,-1,-1,-1,-1,-1,-1,-1],"split_conditions":[1.1E1,9E0,4.878472E-3,1.11E4,6.6959066E-3,1E0,1.38E4,-5.5367517E-4,-3.2509154E-6,-2.3509511E-4,2.9707077E-4,-4.8823335E-4,-0E0,-7.8563506E-5,6.8330733E-6],"split_indices":[4,4,9,0,9,7,0,0,0,0,0,0,0,0,0],"split_type":[0,0,0,0,0,0,0,0,0,0,0,0,0,0,0],"sum_hessian":[7.2073E5,1.67878E5,5.52852E5,1.17798E5,5.008E4,8.833E3,5.44019E5,2.579E3,1.15219E5,1.0956E4,3.9124E4,5.158E3,3.675E3,9.4154E4,4.49865E5],"tree_param":{"num_deleted":"0","num_feature":"10","num_nodes":"15","size_leaf_vector":"1"}},{"base_weights":[-0E0,-1.0972196E-4,1.07274376E-4,9.525547E-5,-8.302012E-4,5.1481335E-4,-1.2238516E-4,6.973083E-5,-4.5199362E-5,-1.87341E-3,-1.4124546E-4,-0E0,3.5392123E-4,2.7036735E-5,-1.3272643E-4],"categories":[],"categories_nodes":[],"categories_segments":[],"categories_sizes":[],"default_left":[0,0,0,0,0,0,0,0,0,0,0,0,0,0,0],"id":66,"left_children":[1,3,5,7,9,11,13,-1,-1,-1,-1,-1,-1,-1,-1],"loss_changes":[8.482821E-3,5.2836318E-2,3.4401834E-2,2.253387E-2,7.878414E-2,8.58112E-2,3.274124E-2,0E0,0E0,0E0,0E0,0E0,0E0,0E0,0E0],"parents":[2147483647,0,0,1,1,2,2,3,3,4,4,5,5,6,6],"right_children":[2,4,6,8,10,12,14,-1,-1,-1,-1,-1,-1,-1,-1],"split_conditions":[1.2E0,9E-1,1E0,7.05E4,9.3E3,1.9E1,2E1,6.973083E-5,-4.5199362E-5,-1.87341E-3,-1.4124546E-4,-0E0,3.5392123E-4,2.7036735E-5,-1.3272643E-4],"split_indices":[3,1,6,0,0,2,2,0,0,0,0,0,0,0,0],"split_type":[0,0,0,0,0,0,0,0,0,0,0,0,0,0,0],"sum_hessian":[7.2073E5,3.55275E5,3.65455E5,2.76049E5,7.9226E4,1.325E5,2.32955E5,1.55192E5,1.20857E5,1.071E3,7.8155E4,9.3888E4,3.8612E4,1.57218E5,7.5737E4],"tree_param":{"num_deleted":"0","num_feature":"10","num_nodes":"15","size_leaf_vector":"1"}},{"base_weights":[-0E0,-1.2923116E-5,8.13989E-4,1.5228822E-4,-7.7433135E-5,-0E0,3.1369173E-3,-3.7065296E-5,1.6583745E-4,7.135192E-7,-1.4180139E-4,3.134346E-4,-6.7666224E-5,-0E0,6.8511383E-4],"categories":[],"categories_nodes":[],"categories_segments":[],"categories_sizes":[],"default_left":[0,0,0,0,0,0,0,0,0,0,0,0,0,0,0],"id":67,"left_children":[1,3,5,7,9,11,13,-1,-1,-1,-1,-1,-1,-1,-1],"loss_changes":[7.6175374E-3,7.5235E-3,2.158872E-2,4.5353375E-2,2.6565187E-2,4.3653003E-3,3.675012E-3,0E0,0E0,0E0,0E0,0E0,0E0,0E0,0E0],"parents":[2147483647,0,0,1,1,2,2,3,3,4,4,5,5,6,6],"right_children":[2,4,6,8,10,12,14,-1,-1,-1,-1,-1,-1,-1,-1],"split_conditions":[2.067E5,1.872E4,5.9375E-3,1.38E4,1.6E0,9E0,8E0,-3.7065296E-5,1.6583745E-4,7.135192E-7,-1.4180139E-4,3.134346E-4,-6.7666224E-5,-0E0,6.8511383E-4],"split_indices":[0,0,9,0,3,4,4,0,0,0,0,0,0,0,0],"split_type":[0,0,0,0,0,0,0,0,0,0,0,0,0,0,0],"sum_hessian":[7.2073E5,7.09417E5,1.1313E4,1.97039E5,5.12378E5,8.362E3,2.951E3,1.30977E5,6.6062E4,4.53437E5,5.8941E4,1.45E3,6.912E3,1.64E2,2.787E3],"tree_param":{"num_deleted":"0","num_feature":"10","num_nodes":"15","size_leaf_vector":"1"}},{"base_weights":[-0E0,1.9626389E-4,-5.126426E-5,7.9079764E-4,-2.5262366E-4,-2.690719E-4,4.995269E-5,-1.5255727E-4,2.508885E-4,5.0773608E-5,-3.1302604E-4,-1.442679E-4,6.4988412E-6,3.1160624E-4,2.2706815E-6],"categories":[],"categories_nodes":[],"categories_segments":[],"categories_sizes":[],"default_left":[0,0,0,0,0,0,0,0,0,0,0,0,0,0,0],"id":68,"left_children":[1,3,5,7,9,11,13,-1,-1,-1,-1,-1,-1,-1,-1],"loss_changes":[7.2634537E-3,4.019489E-2,1.2700901E-2,4.6954874E-2,5.7007153E-2,2.5272828E-2,2.1822644E-2,0E0,0E0,0E0,0E0,0E0,0E0,0E0,0E0],"parents":[2147483647,0,0,1,1,2,2,3,3,4,4,5,5,6,6],"right_children":[2,4,6,8,10,12,14,-1,-1,-1,-1,-1,-1,-1,-1],"split_conditions":[1E1,1.4E1,5E-1,6E0,7.05E4,6.81E4,9.9E3,-1.5255727E-4,2.508885E-4,5.0773608E-5,-3.1302604E-4,-1.442679E-4,6.4988412E-6,3.1160624E-4,2.2706815E-6],"split_indices":[4,2,7,2,0,0,0,0,0,0,0,0,0,0,0],"split_type":[0,0,0,0,0,0,0,0,0,0,0,0,0,0,0],"sum_hessian":[7.2073E5,1.49594E5,5.71136E5,6.4834E4,8.476E4,1.82769E5,3.88367E5,1.4653E4,5.0181E4,6.0887E4,2.3873E4,7.3776E4,1.08993E5,9.364E3,3.79003E5],"tree_param":{"num_deleted":"0","num_feature":"10","num_nodes":"15","size_leaf_vector":"1"}},{"base_weights":[-0E0,-3.9524044E-4,2.806763E-5,-3.5980612E-3,-1.2624332E-4,1.1674211E-3,-4.6569967E-6,-1.0428971E-3,-0E0,-3.2307277E-4,7.853379E-5,-3.1328203E-5,5.275112E-4,-1.8642515E-4,7.231409E-6],"categories":[],"categories_nodes":[],"categories_segments":[],"categories_sizes":[],"default_left":[0,0,0,0,0,0,0,0,0,0,0,0,0,0,0],"id":69,"left_children":[1,3,5,7,9,11,13,-1,-1,-1,-1,-1,-1,-1,-1],"loss_changes":[7.898207E-3,3.8768835E-2,2.5695672E-2,1.867542E-2,3.4350056E-2,3.8680516E-2,2.5217714E-2,0E0,0E0,0E0,0E0,0E0,0E0,0E0,0E0],"parents":[2147483647,0,0,1,1,2,2,3,3,4,4,5,5,6,6],"right_children":[2,4,6,8,10,12,14,-1,-1,-1,-1,-1,-1,-1,-1],"split_conditions":[1.11E4,7E-1,1.14E4,1.0830469E-2,5E-1,1.9E1,1.26E4,-1.0428971E-3,-0E0,-3.2307277E-4,7.853379E-5,-3.1328203E-5,5.275112E-4,-1.8642515E-4,7.231409E-6],"split_indices":[0,1,0,9,8,2,0,0,0,0,0,0,0,0,0],"split_type":[0,0,0,0,0,0,0,0,0,0,0,0,0,0,0],"sum_hessian":[7.2073E5,4.7158E4,6.73572E5,3.505E3,4.3653E4,1.9228E4,6.54344E5,2.353E3,1.152E3,1.1527E4,3.2126E4,9.94E3,9.288E3,2.8093E4,6.26251E5],"tree_param":{"num_deleted":"0","num_feature":"10","num_nodes":"15","size_leaf_vector":"1"}},{"base_weights":[-0E0,-3.256329E-5,3.1464398E-4,-5.6027864E-5,9.423745E-4,1.0500546E-3,-2.0288974E-4,9.219023E-6,-8.5711064E-5,-2.9405815E-4,3.174761E-4,1.4620008E-4,1.2989435E-3,-1.5206511E-4,2.5949845E-4],"categories":[],"categories_nodes":[],"categories_segments":[],"categories_sizes":[],"default_left":[0,0,0,0,0,0,0,0,0,0,0,0,0,0,0],"id":70,"left_children":[1,3,5,7,9,11,13,-1,-1,-1,-1,-1,-1,-1,-1],"loss_changes":[7.396093E-3,1.4496064E-2,2.6196197E-2,2.4470193E-2,2.3174874E-2,4.5644395E-2,3.2646544E-2,0E0,0E0,0E0,0E0,0E0,0E0,0E0,0E0],"parents":[2147483647,0,0,1,1,2,2,3,3,4,4,5,5,6,6],"right_children":[2,4,6,8,10,12,14,-1,-1,-1,-1,-1,-1,-1,-1],"split_conditions":[2.3E1,2.4E1,1.872E4,2E1,8E0,1.68E4,8.2498565E-3,9.219023E-6,-8.5711064E-5,-2.9405815E-4,3.174761E-4,1.4620008E-4,1.2989435E-3,-1.5206511E-4,2.5949845E-4],"split_indices":[4,2,0,2,4,0,9,0,0,0,0,0,0,0,0],"split_type":[0,0,0,0,0,0,0,0,0,0,0,0,0,0,0],"sum_hessian":[7.2073E5,6.53022E5,6.7708E4,6.3818E5,1.4842E4,2.8364E4,3.9344E4,4.99823E5,1.38357E5,2.966E3,1.1876E4,2.6886E4,1.478E3,2.8931E4,1.0413E4],"tree_param":{"num_deleted":"0","num_feature":"10","num_nodes":"15","size_leaf_vector":"1"}},{"base_weights":[-0E0,1.9085553E-4,-4.9570757E-5,-2.2223208E-5,9.95873E-4,1.3612382E-4,-1.6724203E-4,4.1061438E-5,-1.4844988E-4,5.393731E-4,-6.3220716E-5,8.0588834E-5,-5.0682786E-5,-1.05288986E-4,5.0196304E-5],"categories":[],"categories_nodes":[],"categories_segments":[],"categories_sizes":[],"default_left":[0,0,0,0,0,0,0,0,0,0,0,0,0,0,0],"id":71,"left_children":[1,3,5,7,9,11,13,-1,-1,-1,-1,-1,-1,-1,-1],"loss_changes":[6.8527097E-3,2.6147967E-2,1.2495628E-2,1.9568643E-2,7.216373E-2,2.29301E-2,5.2906267E-2,0E0,0E0,0E0,0E0,0E0,0E0,0E0,0E0],"parents":[2147483647,0,0,1,1,2,2,3,3,4,4,5,5,6,6],"right_children":[2,4,6,8,10,12,14,-1,-1,-1,-1,-1,-1,-1,-1],"split_conditions":[1E1,9E0,9E-1,9.900125E-3,1E0,1.7E1,1.7E1,4.1061438E-5,-1.4844988E-4,5.393731E-4,-6.3220716E-5,8.0588834E-5,-5.0682786E-5,-1.05288986E-4,5.0196304E-5],"split_indices":[4,4,1,9,6,2,2,0,0,0,0,0,0,0,0],"split_type":[0,0,0,0,0,0,0,0,0,0,0,0,0,0,0],"sum_hessian":[7.2073E5,1.49594E5,5.71136E5,1.17798E5,3.1796E4,2.19887E5,3.51249E5,8.8987E4,2.8811E4,1.4009E4,1.7787E4,1.31261E5,8.8626E4,1.896E5,1.61649E5],"tree_param":{"num_deleted":"0","num_feature":"10","num_nodes":"15","size_leaf_vector":"1"}},{"base_weights":[-0E0,-1.05115505E-4,1.02717655E-4,-8.497779E-4,2.2795974E-5,-5.143185E-5,5.0060725E-4,1.1486005E-4,-3.1519996E-4,8.289105E-5,-3.38083E-5,1.5895698E-3,-1.4137037E-5,5.616425E-5,6.6130253E-4],"categories":[],"categories_nodes":[],"categories_segments":[],"categories_sizes":[],"default_left":[0,0,0,0,0,0,0,0,0,0,0,0,0,0,0],"id":72,"left_children":[1,3,5,7,9,11,13,-1,-1,-1,-1,-1,-1,-1,-1],"loss_changes":[7.781523E-3,3.4254316E-2,2.2640016E-2,5.4959968E-2,2.2861214E-2,3.6493983E-2,6.1694533E-2,0E0,0E0,0E0,0E0,0E0,0E0,0E0,0E0],"parents":[2147483647,0,0,1,1,2,2,3,3,4,4,5,5,6,6],"right_children":[2,4,6,8,10,12,14,-1,-1,-1,-1,-1,-1,-1,-1],"split_conditions":[1.2E0,1.38E4,9.572649E-3,6.9281044E-3,5.07E4,9E3,9.99E4,1.1486005E-4,-3.1519996E-4,8.289105E-5,-3.38083E-5,1.5895698E-3,-1.4137037E-5,5.616425E-5,6.6130253E-4],"split_indices":[3,0,9,9,0,0,0,0,0,0,0,0,0,0,0],"split_type":[0,0,0,0,0,0,0,0,0,0,0,0,0,0,0],"sum_hessian":[7.2073E5,3.55275E5,3.65455E5,5.2649E4,3.02626E5,2.62504E5,1.02951E5,1.7549E4,3.51E4,1.0035E5,2.02276E5,5.63E2,2.61941E5,9.5643E4,7.308E3],"tree_param":{"num_deleted":"0","num_feature":"10","num_nodes":"15","size_leaf_vector":"1"}},{"base_weights":[-0E0,-1.2630336E-5,6.5078744E-4,-1.10586756E-4,8.0655336E-5,2.3193406E-4,4.038143E-3,1.0596183E-5,-1.5127617E-4,8.2793034E-5,-2.1072005E-5,3.3197697E-4,-2.3932856E-5,-0E0,8.1972714E-4],"categories":[],"categories_nodes":[],"categories_segments":[],"categories_sizes":[],"default_left":[0,0,0,0,0,0,0,0,0,0,0,0,0,0,0],"id":73,"left_children":[1,3,5,7,9,11,13,-1,-1,-1,-1,-1,-1,-1,-1],"loss_changes":[6.1576613E-3,6.470657E-3,1.8110886E-2,3.7029427E-2,2.242823E-2,7.217117E-3,4.059188E-4,0E0,0E0,0E0,0E0,0E0,0E0,0E0,0E0],"parents":[2147483647,0,0,1,1,2,2,3,3,4,4,5,5,6,6],"right_children":[2,4,6,8,10,12,14,-1,-1,-1,-1,-1,-1,-1,-1],"split_conditions":[2.01E5,1.2E0,6.521813E-3,9E-1,1E0,5E-1,7E-1,1.0596183E-5,-1.5127617E-4,8.2793034E-5,-2.1072005E-5,3.3197697E-4,-2.3932856E-5,-0E0,8.1972714E-4],"split_indices":[0,3,9,3,6,8,1,0,0,0,0,0,0,0,0],"split_type":[0,0,0,0,0,0,0,0,0,0,0,0,0,0,0],"sum_hessian":[7.2073E5,7.06462E5,1.4268E4,3.47218E5,3.59244E5,1.2834E4,1.434E3,2.76433E5,7.0785E4,1.29637E5,2.29607E5,2.813E3,1.0021E4,1.8E1,1.416E3],"tree_param":{"num_deleted":"0","num_feature":"10","num_nodes":"15","size_leaf_vector":"1"}},{"base_weights":[-0E0,-2.2968085E-5,3.5241933E-4,2.7422438E-4,-5.4392836E-5,5.001697E-4,-2.7135625E-3,-9.584551E-5,2.8150665E-4,-3.1463083E-4,-2.4776325E-6,1.9765753E-4,-6.5813685E-5,-8.8642276E-4,2.230068E-4],"categories":[],"categories_nodes":[],"categories_segments":[],"categories_sizes":[],"default_left":[0,0,0,0,0,0,0,0,0,0,0,0,0,0,0],"id":74,"left_children":[1,3,5,7,9,11,13,-1,-1,-1,-1,-1,-1,-1,-1],"loss_changes":[5.9641213E-3,6.19962E-3,1.9353494E-2,5.4334562E-2,3.8282253E-2,1.7831292E-2,1.4322738E-2,0E0,0E0,0E0,0E0,0E0,0E0,0E0,0E0],"parents":[2147483647,0,0,1,1,2,2,3,3,4,4,5,5,6,6],"right_children":[2,4,6,8,10,12,14,-1,-1,-1,-1,-1,-1,-1,-1],"split_conditions":[1.214814E-2,6E0,1.083E5,3E4,7E0,1.6E1,1.251E5,-9.584551E-5,2.8150665E-4,-3.1463083E-4,-2.4776325E-6,1.9765753E-4,-6.5813685E-5,-8.8642276E-4,2.230068E-4],"split_indices":[9,4,0,0,4,4,0,0,0,0,0,0,0,0,0],"split_type":[0,0,0,0,0,0,0,0,0,0,0,0,0,0,0],"sum_hessian":[7.2073E5,6.75584E5,4.5146E4,6.3079E4,6.12505E5,4.323E4,1.916E3,3.7626E4,2.5453E4,1.6159E4,5.96346E5,2.7591E4,1.5639E4,1.412E3,5.04E2],"tree_param":{"num_deleted":"0","num_feature":"10","num_nodes":"15","size_leaf_vector":"1"}},{"base_weights":[-0E0,5.3531887E-5,-1.3819941E-4,-1.2724851E-4,2.9942533E-4,2.8131844E-4,-4.8352274E-4,4.3634802E-5,-7.563028E-5,1.6704976E-4,-1.0194103E-5,1.4609325E-4,-1.4311059E-4,-1.1209501E-4,7.3234667E-4],"categories":[],"categories_nodes":[],"categories_segments":[],"categories_sizes":[],"default_left":[0,0,0,0,0,0,0,0,0,0,0,0,0,0,0],"id":75,"left_children":[1,3,5,7,9,11,13,-1,-1,-1,-1,-1,-1,-1,-1],"loss_changes":[5.3225514E-3,2.3205914E-2,2.9169083E-2,2.59562E-2,4.1985802E-2,4.0280044E-2,3.3774696E-2,0E0,0E0,0E0,0E0,0E0,0E0,0E0,0E0],"parents":[2147483647,0,0,1,1,2,2,3,3,4,4,5,5,6,6],"right_children":[2,4,6,8,10,12,14,-1,-1,-1,-1,-1,-1,-1,-1],"split_conditions":[1.3E0,8.326118E-3,8.080808E-3,1.4E1,4.74E4,8.01E4,1.407E5,4.3634802E-5,-7.563028E-5,1.6704976E-4,-1.0194103E-5,1.4609325E-4,-1.4311059E-4,-1.1209501E-4,7.3234667E-4],"split_indices":[1,9,9,2,0,0,0,0,0,0,0,0,0,0,0],"split_type":[0,0,0,0,0,0,0,0,0,0,0,0,0,0,0],"sum_hessian":[7.2073E5,5.2009E5,2.0064E5,2.98559E5,2.21531E5,8.9935E4,1.10705E5,1.2478E5,1.73779E5,8.8151E4,1.3338E5,6.2347E4,2.7588E4,1.0881E5,1.895E3],"tree_param":{"num_deleted":"0","num_feature":"10","num_nodes":"15","size_leaf_vector":"1"}},{"base_weights":[-0E0,-2.6513928E-5,3.4458635E-4,-7.029461E-4,-0E0,1.7599631E-3,1.723994E-5,3.7086563E-4,-2.1488953E-4,2.5029006E-4,-4.238629E-6,5.5826124E-4,-2.0276092E-4,-5.9583614E-4,9.1082766E-5],"categories":[],"categories_nodes":[],"categories_segments":[],"categories_sizes":[],"default_left":[0,0,0,0,0,0,0,0,0,0,0,0,0,0,0],"id":76,"left_children":[1,3,5,7,9,11,13,-1,-1,-1,-1,-1,-1,-1,-1],"loss_changes":[6.61472E-3,1.174962E-2,2.3086589E-2,2.31143E-2,1.6652284E-2,2.7887939E-2,5.430777E-2,0E0,0E0,0E0,0E0,0E0,0E0,0E0,0E0],"parents":[2147483647,0,0,1,1,2,2,3,3,4,4,5,5,6,6],"right_children":[2,4,6,8,10,12,14,-1,-1,-1,-1,-1,-1,-1,-1],"split_conditions":[2.3E1,3E0,3E0,1.8E1,4E0,2.4E1,8E0,3.7086563E-4,-2.1488953E-4,2.5029006E-4,-4.238629E-6,5.5826124E-4,-2.0276092E-4,-5.9583614E-4,9.1082766E-5],"split_indices":[2,4,4,2,4,2,4,0,0,0,0,0,0,0,0],"split_type":[0,0,0,0,0,0,0,0,0,0,0,0,0,0,0],"sum_hessian":[7.2073E5,6.68988E5,5.1742E4,2.4725E4,6.44263E5,9.428E3,4.2314E4,2.963E3,2.1762E4,1.0446E4,6.33817E5,7.004E3,2.424E3,5.249E3,3.7065E4],"tree_param":{"num_deleted":"0","num_feature":"10","num_nodes":"15","size_leaf_vector":"1"}},{"base_weights":[-0E0,-2.0530148E-4,4.5726327E-5,1.1757287E-4,-1.2191545E-3,3.5108372E-3,9.014567E-6,-1.6676697E-4,1.805812E-4,4.5729426E-4,-3.7542495E-4,-1.0923028E-4,1.5020417E-3,-1.3691463E-5,9.265221E-5],"categories":[],"categories_nodes":[],"categories_segments":[],"categories_sizes":[],"default_left":[0,0,0,0,0,0,0,0,0,0,0,0,0,0,0],"id":77,"left_children":[1,3,5,7,9,11,13,-1,-1,-1,-1,-1,-1,-1,-1],"loss_changes":[6.753844E-3,4.3428093E-2,7.326322E-2,7.3989645E-2,7.3655576E-2,1.01504005E-1,2.073955E-2,0E0,0E0,0E0,0E0,0E0,0E0,0E0,0E0],"parents":[2147483647,0,0,1,1,2,2,3,3,4,4,5,5,6,6],"right_children":[2,4,6,8,10,12,14,-1,-1,-1,-1,-1,-1,-1,-1],"split_conditions":[1.38E4,2.1E1,1.41E4,1.2E1,6.9057667E-3,1.9E1,2.2E1,-1.6676697E-4,1.805812E-4,4.5729426E-4,-3.7542495E-4,-1.0923028E-4,1.5020417E-3,-1.3691463E-5,9.265221E-5],"split_indices":[0,4,0,2,9,2,4,0,0,0,0,0,0,0,0],"split_type":[0,0,0,0,0,0,0,0,0,0,0,0,0,0,0],"sum_hessian":[7.2073E5,1.30977E5,5.89753E5,9.897E4,3.2007E4,6.035E3,5.83718E5,4.4465E4,5.4505E4,4.936E3,2.7071E4,2.936E3,3.099E3,4.97733E5,8.5985E4],"tree_param":{"num_deleted":"0","num_feature":"10","num_nodes":"15","size_leaf_vector":"1"}},{"base_weights":[-0E0,8.151617E-5,-1.0410195E-4,-1.5360944E-4,3.07116E-4,1.609771E-3,-2.0558089E-4,-1.7352151E-5,-9.305651E-4,-2.4767767E-5,1.8756789E-4,-2.9460518E-4,4.2699772E-4,-3.1185866E-4,-1.859782E-5],"categories":[],"categories_nodes":[],"categories_segments":[],"categories_sizes":[],"default_left":[0,0,0,0,0,0,0,0,0,0,0,0,0,0,0],"id":78,"left_children":[1,3,5,7,9,11,13,-1,-1,-1,-1,-1,-1,-1,-1],"loss_changes":[6.1146356E-3,2.1538233E-2,5.428483E-2,5.688855E-2,5.6826517E-2,2.8516494E-2,4.4708602E-2,0E0,0E0,0E0,0E0,0E0,0E0,0E0,0E0],"parents":[2147483647,0,0,1,1,2,2,3,3,4,4,5,5,6,6],"right_children":[2,4,6,8,10,12,14,-1,-1,-1,-1,-1,-1,-1,-1],"split_conditions":[1.7E1,1.2E1,1.1E1,1.6E1,1.2E0,5.314592E-3,1.8E1,-1.7352151E-5,-9.305651E-4,-2.4767767E-5,1.8756789E-4,-2.9460518E-4,4.2699772E-4,-3.1185866E-4,-1.859782E-5],"split_indices":[4,2,2,4,3,9,4,0,0,0,0,0,0,0,0],"split_type":[0,0,0,0,0,0,0,0,0,0,0,0,0,0,0],"sum_hessian":[7.2073E5,4.04586E5,3.16144E5,1.97026E5,2.0756E5,1.7393E4,2.98751E5,1.94256E5,2.77E3,1.22839E5,8.4721E4,2.392E3,1.5001E4,2.2594E4,2.76157E5],"tree_param":{"num_deleted":"0","num_feature":"10","num_nodes":"15","size_leaf_vector":"1"}},{"base_weights":[-0E0,5.4960015E-5,-1.4420581E-4,-1.5356929E-4,2.170262E-4,4.161702E-5,-8.233167E-4,-7.382434E-5,3.477292E-5,1.6757925E-6,1.4195677E-4,-8.39772E-5,1.21120356E-4,-1.3247434E-3,-8.898515E-5],"categories":[],"categories_nodes":[],"categories_segments":[],"categories_sizes":[],"default_left":[0,0,0,0,0,0,0,0,0,0,0,0,0,0,0],"id":79,"left_children":[1,3,5,7,9,11,13,-1,-1,-1,-1,-1,-1,-1,-1],"loss_changes":[5.7434766E-3,1.760879E-2,2.5711277E-2,1.6055759E-2,2.9867973E-2,4.094908E-2,9.233161E-2,0E0,0E0,0E0,0E0,0E0,0E0,0E0,0E0],"parents":[2147483647,0,0,1,1,2,2,3,3,4,4,5,5,6,6],"right_children":[2,4,6,8,10,12,14,-1,-1,-1,-1,-1,-1,-1,-1],"split_conditions":[1.3E0,7.5322995E-3,8.31E4,5.07E4,1.2E0,1.7E1,8.43E4,-7.382434E-5,3.477292E-5,1.6757925E-6,1.4195677E-4,-8.39772E-5,1.21120356E-4,-1.3247434E-3,-8.898515E-5],"split_indices":[1,9,0,0,3,2,0,0,0,0,0,0,0,0,0],"split_type":[0,0,0,0,0,0,0,0,0,0,0,0,0,0,0],"sum_hessian":[7.2073E5,5.2009E5,2.0064E5,2.26093E5,2.93997E5,1.5696E5,4.368E4,1.3726E5,8.8833E4,2.07258E5,8.6739E4,8.5836E4,7.1124E4,2.589E3,4.1091E4],"tree_param":{"num_deleted":"0","num_feature":"10","num_nodes":"15","size_leaf_vector":"1"}},{"base_weights":[-0E0,-1.1028345E-4,6.849507E-5,2.3280143E-5,-5.508748E-4,4.6110162E-4,-5.528729E-5,-5.398497E-4,1.723091E-5,3.6179114E-5,-1.7167369E-4,-6.451908E-5,3.2533158E-4,-1.1553933E-4,1.2534743E-5],"categories":[],"categories_nodes":[],"categories_segments":[],"categories_sizes":[],"default_left":[0,0,0,0,0,0,0,0,0,0,0,0,0,0,0],"id":80,"left_children":[1,3,5,7,9,11,13,-1,-1,-1,-1,-1,-1,-1,-1],"loss_changes":[5.456341E-3,1.6607841E-2,2.1731991E-2,3.5029072E-2,1.5073478E-2,9.853921E-2,2.0953966E-2,0E0,0E0,0E0,0E0,0E0,0E0,0E0,0E0],"parents":[2147483647,0,0,1,1,2,2,3,3,4,4,5,5,6,6],"right_children":[2,4,6,8,10,12,14,-1,-1,-1,-1,-1,-1,-1,-1],"split_conditions":[2.52E4,2.04E4,5.07E4,6E0,6.3443184E-3,6.851852E-3,6.45E4,-5.398497E-4,1.723091E-5,3.6179114E-5,-1.7167369E-4,-6.451908E-5,3.2533158E-4,-1.1553933E-4,1.2534743E-5],"split_indices":[0,0,0,2,9,9,0,0,0,0,0,0,0,0,0],"split_type":[0,0,0,0,0,0,0,0,0,0,0,0,0,0,0],"sum_hessian":[7.2073E5,2.77732E5,4.42998E5,2.12257E5,6.5475E4,1.07155E5,3.35843E5,4.607E3,2.0765E5,1.8892E4,4.6583E4,6.3819E4,4.3336E4,6.2642E4,2.73201E5],"tree_param":{"num_deleted":"0","num_feature":"10","num_nodes":"15","size_leaf_vector":"1"}},{"base_weights":[-0E0,-1.8943963E-4,4.1680636E-5,7.89355E-5,-1.0347939E-3,2.7850885E-3,1.2436644E-5,-1.2668483E-4,1.3385071E-4,-3.6200983E-4,2.3909018E-4,-7.047536E-5,1.1828785E-3,4.5957655E-5,-2.023081E-5],"categories":[],"categories_nodes":[],"categories_segments":[],"categories_sizes":[],"default_left":[0,0,0,0,0,0,0,0,0,0,0,0,0,0,0],"id":81,"left_children":[1,3,5,7,9,11,13,-1,-1,-1,-1,-1,-1,-1,-1],"loss_changes":[5.725172E-3,3.0194497E-2,4.591629E-2,4.1640874E-2,5.5667147E-2,6.2092658E-2,1.4476042E-2,0E0,0E0,0E0,0E0,0E0,0E0,0E0,0E0],"parents":[2147483647,0,0,1,1,2,2,3,3,4,4,5,5,6,6],"right_children":[2,4,6,8,10,12,14,-1,-1,-1,-1,-1,-1,-1,-1],"split_conditions":[1.38E4,2.1E1,1.41E4,1.2E1,1.6E0,1.9E1,1.3E1,-1.2668483E-4,1.3385071E-4,-3.6200983E-4,2.3909018E-4,-7.047536E-5,1.1828785E-3,4.5957655E-5,-2.023081E-5],"split_indices":[0,4,0,2,1,2,4,0,0,0,0,0,0,0,0],"split_type":[0,0,0,0,0,0,0,0,0,0,0,0,0,0,0],"sum_hessian":[7.2073E5,1.30977E5,5.89753E5,9.897E4,3.2007E4,6.035E3,5.83718E5,4.4465E4,5.4505E4,2.3918E4,8.089E3,2.936E3,3.099E3,2.01861E5,3.81857E5],"tree_param":{"num_deleted":"0","num_feature":"10","num_nodes":"15","size_leaf_vector":"1"}},{"base_weights":[-0E0,-4.7821619E-4,1.8212138E-5,1.6129707E-4,-1.5071651E-3,2.7049173E-4,-3.5154764E-5,6.269206E-5,-2.775904E-4,-5.326631E-4,4.106361E-5,1.0668888E-4,-6.042854E-5,2.8413986E-5,-2.9504785E-5],"categories":[],"categories_nodes":[],"categories_segments":[],"categories_sizes":[],"default_left":[0,0,0,0,0,0,0,0,0,0,0,0,0,0,0],"id":82,"left_children":[1,3,5,7,9,11,13,-1,-1,-1,-1,-1,-1,-1,-1],"loss_changes":[6.3599925E-3,1.8311895E-2,9.46044E-3,3.292147E-3,2.2167062E-2,1.8607158E-2,1.137687E-2,0E0,0E0,0E0,0E0,0E0,0E0,0E0,0E0],"parents":[2147483647,0,0,1,1,2,2,3,3,4,4,5,5,6,6],"right_children":[2,4,6,8,10,12,14,-1,-1,-1,-1,-1,-1,-1,-1],"split_conditions":[2E0,6.3501294E-3,1E1,1.053E5,3.3E4,1.9E1,9E-1,6.269206E-5,-2.775904E-4,-5.326631E-4,4.106361E-5,1.0668888E-4,-6.042854E-5,2.8413986E-5,-2.9504785E-5],"split_indices":[4,9,4,0,0,2,1,0,0,0,0,0,0,0,0],"split_type":[0,0,0,0,0,0,0,0,0,0,0,0,0,0,0],"sum_hessian":[7.2073E5,2.6799E4,6.93931E5,1.623E4,1.0569E4,1.22795E5,5.71136E5,1.5076E4,1.154E3,6.482E3,4.087E3,8.4751E4,3.8044E4,2.19887E5,3.51249E5],"tree_param":{"num_deleted":"0","num_feature":"10","num_nodes":"15","size_leaf_vector":"1"}},{"base_weights":[-0E0,6.4988865E-4,-1.2299977E-5,-1.0375446E-3,2.1321326E-3,-5.584148E-4,1.4526358E-5,-8.018864E-4,2.4911662E-4,3.8524315E-5,9.178847E-4,-1.8420267E-4,2.007695E-4,1.7295463E-4,-1.940115E-6],"categories":[],"categories_nodes":[],"categories_segments":[],"categories_sizes":[],"default_left":[0,0,0,0,0,0,0,0,0,0,0,0,0,0,0],"id":83,"left_children":[1,3,5,7,9,11,13,-1,-1,-1,-1,-1,-1,-1,-1],"loss_changes":[5.6673554E-3,3.3486493E-2,1.063814E-2,4.213165E-2,3.176684E-2,1.9225024E-2,1.4302505E-2,0E0,0E0,0E0,0E0,0E0,0E0,0E0,0E0],"parents":[2147483647,0,0,1,1,2,2,3,3,4,4,5,5,6,6],"right_children":[2,4,6,8,10,12,14,-1,-1,-1,-1,-1,-1,-1,-1],"split_conditions":[9.6E3,1E0,1.11E4,1.3E0,1E0,1.0492486E-2,1.14E4,-8.018864E-4,2.4911662E-4,3.8524315E-5,9.178847E-4,-1.8420267E-4,2.007695E-4,1.7295463E-4,-1.940115E-6],"split_indices":[0,6,0,1,8,9,0,0,0,0,0,0,0,0,0],"split_type":[0,0,0,0,0,0,0,0,0,0,0,0,0,0,0],"sum_hessian":[7.2073E5,1.316E4,7.0757E5,5.997E3,7.163E3,3.3998E4,6.73572E5,2.699E3,3.298E3,4.12E3,3.043E3,2.7855E4,6.143E3,1.9228E4,6.54344E5],"tree_param":{"num_deleted":"0","num_feature":"10","num_nodes":"15","size_leaf_vector":"1"}},{"base_weights":[-0E0,5.2890042E-5,-1.3667077E-4,-1.6901072E-3,6.67716E-5,6.397896E-4,-2.5028433E-4,-8.304732E-4,-1.218171E-4,-5.491294E-6,5.2435884E-5,-1.9244027E-3,1.6884944E-4,-4.3280917E-4,-2.7381922E-5],"categories":[],"categories_nodes":[],"categories_segments":[],"categories_sizes":[],"default_left":[0,0,0,0,0,0,0,0,0,0,0,0,0,0,0],"id":84,"left_children":[1,3,5,7,9,11,13,-1,-1,-1,-1,-1,-1,-1,-1],"loss_changes":[5.2027195E-3,1.1772862E-2,1.7506232E-2,7.7878414E-3,9.623517E-3,4.821131E-2,3.6948137E-2,0E0,0E0,0E0,0E0,0E0,0E0,0E0,0E0],"parents":[2147483647,0,0,1,1,2,2,3,3,4,4,5,5,6,6],"right_children":[2,4,6,8,10,12,14,-1,-1,-1,-1,-1,-1,-1,-1],"split_conditions":[1.3E0,4.5789103E-3,1.17E4,8.13E4,1.2E0,9E0,1.26E4,-8.304732E-4,-1.218171E-4,-5.491294E-6,5.2435884E-5,-1.9244027E-3,1.6884944E-4,-4.3280917E-4,-2.7381922E-5],"split_indices":[1,9,0,0,3,4,0,0,0,0,0,0,0,0,0],"split_type":[0,0,0,0,0,0,0,0,0,0,0,